{"graph_0": {"_type": "graph-file", "path": "media/graph/graph_0_summary_d8eb77fe.graph.json", "sha256": "d8eb77fefd4c92ddb6c62f017265c4715e6bd78c243bf1180689b4b377defe19", "size": 1980}, "train_distance_loss": 0.029600948095321655, "train_terrain_loss": 0.01536601036787033, "train_height_loss": 0.0030119537841528654, "wall_time": 53.74894332885742, "epoch": 999, "_step": 999, "_runtime": 54, "_timestamp": 1614543490, "gradients/linear3.bias": {"_type": "histogram", "values": [1.0, 0.0, 0.0, 0.0, 0.0, 0.0, 0.0, 0.0, 0.0, 1.0, 0.0, 0.0, 0.0, 0.0, 0.0, 0.0, 0.0, 0.0, 0.0, 0.0, 0.0, 0.0, 0.0, 0.0, 0.0, 0.0, 0.0, 0.0, 0.0, 0.0, 0.0, 0.0, 0.0, 0.0, 0.0, 0.0, 0.0, 0.0, 0.0, 0.0, 0.0, 0.0, 0.0, 0.0, 0.0, 0.0, 0.0, 0.0, 0.0, 0.0, 0.0, 0.0, 0.0, 0.0, 0.0, 0.0, 0.0, 0.0, 0.0, 0.0, 0.0, 0.0, 0.0, 1.0], "bins": [-0.0003724675625562668, -5.074639921076596e-05, 0.00027097476413473487, 0.0005926958983764052, 0.0009144170908257365, 0.0012361382832750678, 0.0015578593593090773, 0.0018795805517584085, 0.00220130174420774, 0.002523022936657071, 0.0028447441291064024, 0.00316646508872509, 0.0034881862811744213, 0.0038099074736237526, 0.004131628666073084, 0.004453349858522415, 0.0047750710509717464, 0.005096792243421078, 0.005418513435870409, 0.00574023462831974, 0.006061955820769072, 0.006383677013218403, 0.006705397740006447, 0.007027119398117065, 0.007348840124905109, 0.007670561317354441, 0.007992282509803772, 0.008314003236591816, 0.008635724894702435, 0.008957445621490479, 0.009279167279601097, 0.009600888006389141, 0.00992260966449976, 0.010244330391287804, 0.010566052049398422, 0.010887772776186466, 0.011209494434297085, 0.011531215161085129, 0.011852936819195747, 0.012174657545983791, 0.01249637920409441, 0.012818099930882454, 0.013139821588993073, 0.013461542315781116, 0.013783263973891735, 0.014104984700679779, 0.014426706358790398, 0.014748427085578442, 0.015070147812366486, 0.01539186853915453, 0.015713589265942574, 0.016035310924053192, 0.01635703258216381, 0.01667875424027443, 0.0170004740357399, 0.017322195693850517, 0.017643917351961136, 0.017965639010071754, 0.018287358805537224, 0.018609080463647842, 0.01893080212175846, 0.01925252377986908, 0.01957424357533455, 0.019895965233445168, 0.020217686891555786]}, "gradients/linear3.weight": {"_type": "histogram", "values": [1.0, 0.0, 0.0, 0.0, 0.0, 0.0, 1.0, 1.0, 3.0, 0.0, 1.0, 3.0, 4.0, 2.0, 3.0, 2.0, 3.0, 5.0, 6.0, 10.0, 56.0, 16.0, 9.0, 5.0, 4.0, 4.0, 3.0, 2.0, 4.0, 3.0, 3.0, 2.0, 1.0, 3.0, 2.0, 2.0, 2.0, 5.0, 1.0, 3.0, 3.0, 3.0, 3.0, 1.0, 0.0, 1.0, 0.0, 2.0, 0.0, 0.0, 0.0, 0.0, 2.0, 1.0, 0.0, 0.0, 0.0, 0.0, 0.0, 0.0, 0.0, 0.0, 0.0, 1.0], "bins": [-0.006299489643424749, -0.005997404456138611, -0.005695318803191185, -0.0053932336159050465, -0.005091148428618908, -0.004789062775671482, -0.0044869775883853436, -0.004184892401099205, -0.003882806980982423, -0.0035807215608656406, -0.003278636373579502, -0.00297655095346272, -0.0026744655333459377, -0.002372380346059799, -0.002070294925943017, -0.0017682097386568785, -0.0014661243185400963, -0.001164039014838636, -0.0008619536529295146, -0.0005598682910203934, -0.000257782987318933, 4.430231638252735e-05, 0.00034638773649930954, 0.0006484729237854481, 0.0009505583439022303, 0.0012526436476036906, 0.001554728951305151, 0.0018568143714219332, 0.0021588997915387154, 0.002460984978824854, 0.002763070398941636, 0.0030651555862277746, 0.0033672405406832695, 0.0036693259608000517, 0.003971411380916834, 0.004273496568202972, 0.004575581755489111, 0.0048776669427752495, 0.005179752595722675, 0.005481837783008814, 0.005783922970294952, 0.006086008157581091, 0.006388093810528517, 0.006690178997814655, 0.006992264185100794, 0.007294349372386932, 0.007596435025334358, 0.007898520678281784, 0.00820060633122921, 0.008502691984176636, 0.008804776705801487, 0.009106862358748913, 0.009408948011696339, 0.00971103273332119, 0.010013118386268616, 0.010315204039216042, 0.010617288760840893, 0.010919374413788319, 0.01122145913541317, 0.011523544788360596, 0.011825630441308022, 0.012127715162932873, 0.012429800815880299, 0.01273188553750515, 0.013033971190452576]}, "gradients/linear2.bias": {"_type": "histogram", "values": [1.0, 1.0, 0.0, 2.0, 2.0, 0.0, 0.0, 0.0, 2.0, 0.0, 0.0, 0.0, 0.0, 0.0, 0.0, 0.0, 1.0, 1.0, 0.0, 1.0, 0.0, 0.0, 1.0, 1.0, 1.0, 1.0, 4.0, 0.0, 0.0, 0.0, 1.0, 0.0, 3.0, 1.0, 11.0, 5.0, 1.0, 0.0, 0.0, 1.0, 2.0, 2.0, 1.0, 1.0, 0.0, 3.0, 1.0, 1.0, 0.0, 0.0, 0.0, 0.0, 0.0, 1.0, 2.0, 1.0, 2.0, 1.0, 0.0, 2.0, 0.0, 1.0, 0.0, 1.0], "bins": [-0.0030694163870066404, -0.002980246441438794, -0.0028910767287015915, -0.002801906783133745, -0.0027127370703965425, -0.0026235671248286963, -0.0025343974120914936, -0.0024452274665236473, -0.002356057520955801, -0.0022668875753879547, -0.002177717862650752, -0.0020885479170829058, -0.001999378204345703, -0.0019102082587778568, -0.0018210384296253324, -0.0017318686004728079, -0.0016426988877356052, -0.0015535290585830808, -0.0014643592294305563, -0.00137518928386271, -0.0012860195711255074, -0.001196849625557661, -0.0011076797964051366, -0.0010185099672526121, -0.0009293401381000876, -0.0008401703089475632, -0.0007510004797950387, -0.0006618305924348533, -0.0005726607632823288, -0.00048349093412980437, -0.000394321046769619, -0.0003051512176170945, -0.00021598138846457005, -0.00012681154476013035, -3.7641701055690646e-05, 5.152815720066428e-05, 0.00014069798635318875, 0.00022986781550571322, 0.0003190377028658986, 0.0004082075320184231, 0.0004973773611709476, 0.000586547190323472, 0.0006757170194759965, 0.0007648869068361819, 0.0008540567359887064, 0.0009432265651412308, 0.0010323964525014162, 0.0011215662816539407, 0.0012107361108064651, 0.0012999059399589896, 0.001389075769111514, 0.0014782457146793604, 0.001567415427416563, 0.0016565853729844093, 0.0017457552021369338, 0.0018349250312894583, 0.0019240948604419827, 0.0020132646895945072, 0.0021024346351623535, 0.002191604347899556, 0.0022807742934674025, 0.002369944006204605, 0.0024591139517724514, 0.0025482838973402977, 0.0026374536100775003]}, "gradients/linear2.weight": {"_type": "histogram", "values": [2.0, 0.0, 0.0, 2.0, 0.0, 2.0, 1.0, 1.0, 2.0, 4.0, 3.0, 6.0, 10.0, 10.0, 3.0, 12.0, 10.0, 10.0, 9.0, 14.0, 18.0, 27.0, 34.0, 36.0, 35.0, 36.0, 33.0, 34.0, 37.0, 47.0, 47.0, 65.0, 101.0, 134.0, 155.0, 199.0, 1199.0, 462.0, 225.0, 135.0, 105.0, 111.0, 111.0, 80.0, 89.0, 87.0, 60.0, 56.0, 41.0, 44.0, 29.0, 24.0, 10.0, 15.0, 13.0, 11.0, 14.0, 7.0, 8.0, 8.0, 5.0, 3.0, 1.0, 4.0], "bins": [-0.0033707707189023495, -0.0032794016879051924, -0.0031880326569080353, -0.003096663625910878, -0.003005294594913721, -0.0029139253310859203, -0.0028225563000887632, -0.002731187269091606, -0.002639818238094449, -0.002548449207097292, -0.002457080176100135, -0.0023657111451029778, -0.002274341881275177, -0.00218297285027802, -0.002091603819280863, -0.0020002347882837057, -0.0019088657572865486, -0.0018174967262893915, -0.0017261276952922344, -0.0016347585478797555, -0.0015433895168825984, -0.0014520204858854413, -0.0013606513384729624, -0.0012692823074758053, -0.0011779132764786482, -0.001086544245481491, -0.000995175214484334, -0.0009038060670718551, -0.000812437036074698, -0.0007210680050775409, -0.0006296989158727229, -0.0005383298266679049, -0.00044696079567074776, -0.0003555917355697602, -0.00026422267546877265, -0.0001728536153677851, -8.148455526679754e-05, 9.884504834190011e-06, 0.00010125356493517756, 0.00019262265413999557, 0.00028399168513715267, 0.0003753607452381402, 0.0004667298053391278, 0.0005580988945439458, 0.0006494679255411029, 0.00074083695653826, 0.000832206045743078, 0.000923575134947896, 0.001014944165945053, 0.0011063131969422102, 0.0011976822279393673, 0.0012890513753518462, 0.0013804204063490033, 0.0014717894373461604, 0.0015631585847586393, 0.0016545276157557964, 0.0017458966467529535, 0.0018372656777501106, 0.0019286347087472677, 0.002020003739744425, 0.0021113730035722256, 0.0022027420345693827, 0.0022941110655665398, 0.002385480096563697, 0.002476849127560854]}, "gradients/linear1.bias": {"_type": "histogram", "values": [1.0, 0.0, 0.0, 0.0, 0.0, 1.0, 1.0, 1.0, 0.0, 0.0, 0.0, 1.0, 1.0, 0.0, 1.0, 1.0, 0.0, 1.0, 0.0, 0.0, 4.0, 1.0, 3.0, 0.0, 0.0, 3.0, 4.0, 2.0, 3.0, 1.0, 7.0, 1.0, 3.0, 1.0, 0.0, 1.0, 1.0, 1.0, 2.0, 1.0, 2.0, 0.0, 2.0, 1.0, 1.0, 0.0, 1.0, 0.0, 1.0, 0.0, 2.0, 2.0, 2.0, 0.0, 0.0, 0.0, 0.0, 0.0, 0.0, 0.0, 0.0, 0.0, 1.0, 1.0], "bins": [-0.0023344438523054123, -0.002258844440802932, -0.002183245262131095, -0.0021076458506286144, -0.0020320466719567776, -0.001956447260454297, -0.0018808479653671384, -0.0018052486702799797, -0.001729649375192821, -0.0016540500801056623, -0.0015784507850185037, -0.001502851489931345, -0.0014272520784288645, -0.0013516528997570276, -0.0012760534882545471, -0.0012004541931673884, -0.0011248548980802298, -0.001049255602993071, -0.0009736563079059124, -0.0008980569546110928, -0.0008224576595239341, -0.0007468583644367754, -0.0006712590111419559, -0.0005956597160547972, -0.0005200604209676385, -0.0004444611258804798, -0.0003688618016894907, -0.00029326247749850154, -0.00021766318241134286, -0.00014206388732418418, -6.646456313319504e-05, 9.134761057794094e-06, 8.473405614495277e-05, 0.00016033336578402668, 0.0002359326754231006, 0.00031153199961408973, 0.0003871312947012484, 0.0004627305897884071, 0.0005383299430832267, 0.0006139292381703854, 0.000689528533257544, 0.0007651278283447027, 0.0008407271234318614, 0.000916326476726681, 0.0009919258300215006, 0.0010675250086933374, 0.001143124420195818, 0.0012187237152829766, 0.0012943230103701353, 0.001369922305457294, 0.0014455216005444527, 0.0015211208956316113, 0.00159672019071877, 0.0016723196022212505, 0.0017479188973084092, 0.001823518192395568, 0.0018991174874827266, 0.0019747167825698853, 0.0020503161940723658, 0.0021259153727442026, 0.002201514784246683, 0.00227711396291852, 0.0023527133744210005, 0.002428312785923481, 0.002503911964595318]}, "gradients/linear1.weight": {"_type": "histogram", "values": [1.0, 0.0, 0.0, 0.0, 0.0, 0.0, 0.0, 1.0, 0.0, 0.0, 0.0, 0.0, 0.0, 0.0, 1.0, 1.0, 1.0, 1.0, 1.0, 2.0, 4.0, 5.0, 3.0, 11.0, 7.0, 8.0, 25.0, 19.0, 49.0, 81.0, 135.0, 183.0, 266.0, 423.0, 786.0, 1472.0, 496.0, 349.0, 202.0, 143.0, 83.0, 57.0, 31.0, 23.0, 13.0, 10.0, 5.0, 4.0, 3.0, 4.0, 1.0, 5.0, 2.0, 0.0, 2.0, 2.0, 2.0, 3.0, 0.0, 1.0, 0.0, 0.0, 0.0, 1.0], "bins": [-0.006361344363540411, -0.006180690601468086, -0.006000036373734474, -0.005819382611662149, -0.005638728849589825, -0.0054580750875175, -0.005277420859783888, -0.005096767097711563, -0.004916113335639238, -0.004735459573566914, -0.0045548053458333015, -0.004374151583760977, -0.004193497821688652, -0.004012844059616327, -0.0038321898318827152, -0.0036515360698103905, -0.003470882074907422, -0.0032902280800044537, -0.003109574317932129, -0.0029289203230291605, -0.0027482665609568357, -0.0025676125660538673, -0.0023869588039815426, -0.002206304809078574, -0.0020256508141756058, -0.0018449969356879592, -0.0016643430572003126, -0.0014836890622973442, -0.0013030353002250195, -0.001122381305322051, -0.0009417274268344045, -0.0007610735483467579, -0.0005804197862744331, -0.00039976590778678656, -0.00021911200019530952, -3.845809260383248e-05, 0.0001421957858838141, 0.0003228496643714607, 0.0005035036010667682, 0.0006841574795544147, 0.0008648113580420613, 0.001045465236529708, 0.0012261191150173545, 0.001406772993505001, 0.0015874269884079695, 0.0017680807504802942, 0.0019487347453832626, 0.0021293885074555874, 0.002310042502358556, 0.002490696497261524, 0.002671350259333849, 0.0028520042542368174, 0.003032658016309142, 0.0032133120112121105, 0.0033939657732844353, 0.0035746197681874037, 0.003755273763090372, 0.003935927525162697, 0.004116581752896309, 0.004297235514968634, 0.004477889277040958, 0.004658543039113283, 0.004839197266846895, 0.00501985102891922, 0.005200504790991545]}, "gradients/encoder_linear.bias": {"_type": "histogram", "values": [2.0, 0.0, 0.0, 0.0, 1.0, 1.0, 0.0, 0.0, 0.0, 0.0, 1.0, 2.0, 2.0, 0.0, 2.0, 1.0, 4.0, 1.0, 0.0, 4.0, 1.0, 1.0, 2.0, 2.0, 4.0, 4.0, 1.0, 1.0, 0.0, 6.0, 4.0, 1.0, 5.0, 2.0, 3.0, 1.0, 0.0, 0.0, 1.0, 0.0, 1.0, 0.0, 0.0, 1.0, 1.0, 0.0, 0.0, 0.0, 0.0, 0.0, 0.0, 0.0, 0.0, 0.0, 0.0, 0.0, 0.0, 0.0, 0.0, 0.0, 0.0, 0.0, 0.0, 1.0], "bins": [-0.001222193706780672, -0.001170401112176478, -0.0011186085175722837, -0.0010668159229680896, -0.0010150233283638954, -0.0009632307337597013, -0.0009114381391555071, -0.0008596455445513129, -0.0008078529499471188, -0.0007560603553429246, -0.0007042677607387304, -0.0006524751661345363, -0.0006006825715303421, -0.0005488899769261479, -0.0004970973823219538, -0.0004453047877177596, -0.00039351219311356544, -0.0003417195985093713, -0.0002899270039051771, -0.00023813440930098295, -0.0001863418146967888, -0.00013454922009259462, -8.275662548840046e-05, -3.0964030884206295e-05, 2.082856371998787e-05, 7.262115832418203e-05, 0.0001244137529283762, 0.00017620634753257036, 0.00022799894213676453, 0.0002797915367409587, 0.00033158413134515285, 0.000383376725949347, 0.0004351693205535412, 0.00048696191515773535, 0.0005387545097619295, 0.0005905471043661237, 0.0006423396989703178, 0.000694132293574512, 0.0007459248881787062, 0.0007977174827829003, 0.0008495100773870945, 0.0009013026719912887, 0.0009530952665954828, 0.001004887861199677, 0.0010566804558038712, 0.0011084730504080653, 0.0011602656450122595, 0.0012120582396164536, 0.0012638508342206478, 0.001315643428824842, 0.0013674360234290361, 0.0014192286180332303, 0.0014710212126374245, 0.0015228138072416186, 0.0015746064018458128, 0.001626398996450007, 0.0016781915910542011, 0.0017299841856583953, 0.0017817767802625895, 0.0018335693748667836, 0.0018853619694709778, 0.001937154564075172, 0.001988947158679366, 0.0020407396368682384, 0.0020925323478877544]}, "gradients/encoder_linear.weight": {"_type": "histogram", "values": [1.0, 2.0, 2.0, 8.0, 11.0, 20.0, 11.0, 30.0, 46.0, 52.0, 76.0, 65.0, 84.0, 124.0, 151.0, 165.0, 274.0, 338.0, 490.0, 576.0, 768.0, 947.0, 1378.0, 1868.0, 2570.0, 2980.0, 2950.0, 2319.0, 1685.0, 1211.0, 960.0, 692.0, 527.0, 405.0, 278.0, 203.0, 164.0, 139.0, 118.0, 90.0, 50.0, 35.0, 38.0, 26.0, 24.0, 18.0, 10.0, 10.0, 11.0, 8.0, 11.0, 10.0, 4.0, 11.0, 7.0, 6.0, 7.0, 7.0, 5.0, 2.0, 4.0, 3.0, 1.0, 2.0], "bins": [-0.00042616736027412117, -0.00040946347871795297, -0.00039275959716178477, -0.00037605571560561657, -0.0003593518049456179, -0.0003426479233894497, -0.0003259440418332815, -0.0003092401602771133, -0.0002925362787209451, -0.0002758323971647769, -0.0002591285156086087, -0.0002424246195005253, -0.00022572072339244187, -0.00020901684183627367, -0.00019231296028010547, -0.00017560907872393727, -0.00015890516806393862, -0.00014220128650777042, -0.000125497390399687, -0.0001087935088435188, -9.208962001139298e-05, -7.538573117926717e-05, -5.868184962309897e-05, -4.197796079097316e-05, -2.5274071958847344e-05, -8.570184945710935e-06, 8.133702067425475e-06, 2.483758726157248e-05, 4.154147609369829e-05, 5.8245364925824106e-05, 7.49492464819923e-05, 9.165313531411812e-05, 0.00010835705325007439, 0.00012506093480624259, 0.000141764830914326, 0.0001584687124704942, 0.00017517260857857764, 0.00019187649013474584, 0.00020858037169091403, 0.00022528425324708223, 0.00024198814935516566, 0.0002586920454632491, 0.0002753959270194173, 0.0002920998085755855, 0.0003088036901317537, 0.00032550760079175234, 0.0003422114532440901, 0.00035891536390408874, 0.00037561924546025693, 0.00039232312701642513, 0.00040902700857259333, 0.00042573089012876153, 0.0004424348007887602, 0.0004591386823449284, 0.0004758425639010966, 0.0004925464745610952, 0.000509250327013433, 0.0005259542376734316, 0.0005426580901257694, 0.000559362000785768, 0.0005760658532381058, 0.0005927697638981044, 0.0006094736745581031, 0.0006261775270104408, 0.0006428814376704395]}, "gradients/conv3.bias": {"_type": "histogram", "values": [1.0, 0.0, 0.0, 0.0, 0.0, 0.0, 0.0, 0.0, 0.0, 0.0, 0.0, 0.0, 0.0, 0.0, 0.0, 0.0, 0.0, 0.0, 0.0, 0.0, 0.0, 0.0, 0.0, 0.0, 0.0, 1.0, 0.0, 0.0, 0.0, 0.0, 0.0, 0.0, 0.0, 0.0, 0.0, 0.0, 2.0, 0.0, 0.0, 0.0, 0.0, 1.0, 0.0, 0.0, 0.0, 0.0, 0.0, 0.0, 0.0, 0.0, 1.0, 0.0, 0.0, 0.0, 0.0, 1.0, 0.0, 0.0, 0.0, 0.0, 0.0, 0.0, 0.0, 1.0], "bins": [-0.006062396336346865, -0.0059246476739645, -0.0057868994772434235, -0.005649150814861059, -0.005511402152478695, -0.005373653955757618, -0.005235905293375254, -0.005098157096654177, -0.0049604084342718124, -0.004822659771889448, -0.004684911575168371, -0.004547162912786007, -0.00440941471606493, -0.004271666053682566, -0.004133917391300201, -0.0039961691945791245, -0.00385842053219676, -0.0037206721026450396, -0.003582923673093319, -0.0034451750107109547, -0.003307426581159234, -0.0031696781516075134, -0.003031929489225149, -0.0028941810596734285, -0.002756432630121708, -0.0026186842005699873, -0.0024809357710182667, -0.0023431871086359024, -0.002205438679084182, -0.002067690249532461, -0.0019299417035654187, -0.0017921931575983763, -0.0016544442623853683, -0.0015166958328336477, -0.0013789472868666053, -0.0012411987408995628, -0.0011034503113478422, -0.0009657018235884607, -0.0008279533358290792, -0.0006902048480696976, -0.0005524563603103161, -0.00041470787255093455, -0.000276959384791553, -0.0001392108970321715, -1.4624092727899551e-06, 0.00013628607848659158, 0.0002740345662459731, 0.00041178305400535464, 0.0005495315417647362, 0.0006872800295241177, 0.0008250285172834992, 0.0009627770050428808, 0.0011005254928022623, 0.001238273922353983, 0.0013760224683210254, 0.0015137710142880678, 0.0016515194438397884, 0.001789267873391509, 0.0019270164193585515, 0.002064764965325594, 0.0022025133948773146, 0.002340261824429035, 0.0024780104868113995, 0.00261575891636312, 0.0027535073459148407]}, "gradients/conv3.weight": {"_type": "histogram", "values": [1.0, 0.0, 0.0, 0.0, 0.0, 2.0, 1.0, 1.0, 0.0, 2.0, 2.0, 2.0, 2.0, 0.0, 1.0, 1.0, 1.0, 7.0, 3.0, 3.0, 4.0, 3.0, 4.0, 5.0, 9.0, 16.0, 13.0, 18.0, 18.0, 12.0, 18.0, 15.0, 5.0, 7.0, 16.0, 7.0, 3.0, 6.0, 8.0, 6.0, 6.0, 3.0, 2.0, 8.0, 3.0, 3.0, 1.0, 3.0, 2.0, 2.0, 1.0, 1.0, 8.0, 3.0, 2.0, 2.0, 4.0, 4.0, 0.0, 3.0, 1.0, 2.0, 0.0, 2.0], "bins": [-0.0011256024008616805, -0.0010816131252795458, -0.0010376237332820892, -0.0009936344576999545, -0.0009496451239101589, -0.0009056557901203632, -0.0008616665145382285, -0.0008176771807484329, -0.0007736878469586372, -0.0007296985131688416, -0.000685709179379046, -0.0006417199037969112, -0.0005977305700071156, -0.00055374123621732, -0.0005097519606351852, -0.0004657626268453896, -0.00042177329305559397, -0.00037778395926579833, -0.00033379465457983315, -0.00028980534989386797, -0.00024581601610407233, -0.00020182669686619192, -0.00015783737762831151, -0.00011384807294234633, -6.98587391525507e-05, -2.586941991467029e-05, 1.811989932321012e-05, 6.210921856109053e-05, 0.00010609853779897094, 0.00015008785703685135, 0.00019407717627473176, 0.00023806648096069694, 0.0002820559311658144, 0.00032604526495561004, 0.0003700345696415752, 0.0004140238743275404, 0.00045801320811733603, 0.0005020025419071317, 0.0005459918174892664, 0.000589981151279062, 0.0006339704850688577, 0.0006779598188586533, 0.0007219491526484489, 0.0007659384282305837, 0.0008099277620203793, 0.0008539170958101749, 0.0008979063713923097, 0.0009418957051821053, 0.000985885038971901, 0.0010298743145540357, 0.0010738637065514922, 0.001117852982133627, 0.0011618423741310835, 0.0012058316497132182, 0.001249820925295353, 0.0012938103172928095, 0.0013377995928749442, 0.001381788868457079, 0.0014257782604545355, 0.0014697675360366702, 0.001513756811618805, 0.0015577462036162615, 0.0016017354791983962, 0.001645724754780531, 0.0016897141467779875]}, "gradients/conv2.bias": {"_type": "histogram", "values": [1.0, 0.0, 0.0, 0.0, 0.0, 0.0, 0.0, 0.0, 0.0, 0.0, 0.0, 0.0, 0.0, 0.0, 0.0, 0.0, 0.0, 0.0, 0.0, 0.0, 0.0, 0.0, 0.0, 0.0, 0.0, 0.0, 0.0, 0.0, 0.0, 0.0, 0.0, 0.0, 0.0, 1.0, 0.0, 1.0, 0.0, 0.0, 0.0, 0.0, 0.0, 0.0, 0.0, 0.0, 0.0, 0.0, 0.0, 0.0, 0.0, 0.0, 0.0, 0.0, 0.0, 0.0, 0.0, 0.0, 0.0, 0.0, 0.0, 0.0, 0.0, 0.0, 0.0, 1.0], "bins": [-0.0020806300453841686, -0.002032811986282468, -0.001984993927180767, -0.0019371757516637444, -0.0018893576925620437, -0.001841539517045021, -0.0017937214579433203, -0.0017459033988416195, -0.0016980853397399187, -0.001650267280638218, -0.0016024491051211953, -0.0015546310460194945, -0.0015068129869177938, -0.0014589948114007711, -0.0014111767522990704, -0.0013633586931973696, -0.001315540517680347, -0.0012677224585786462, -0.0012199042830616236, -0.0011720862239599228, -0.001124268164858222, -0.0010764501057565212, -0.0010286319302394986, -0.0009808138711377978, -0.0009329957538284361, -0.0008851776365190744, -0.0008373595774173737, -0.000789541460108012, -0.0007417233427986503, -0.0006939052836969495, -0.0006460871663875878, -0.0005982690490782261, -0.0005504511063918471, -0.0005026329890824854, -0.00045481492998078465, -0.00040699681267142296, -0.0003591787244658917, -0.0003113606362603605, -0.0002635425189509988, -0.00021572443074546754, -0.0001679063425399363, -0.00012008824705844745, -7.22701515769586e-05, -2.445204881951213e-05, 2.336603938601911e-05, 7.118412759155035e-05, 0.00011900224490091205, 0.00016682033310644329, 0.00021463842131197453, 0.00026245650951750576, 0.000310274597723037, 0.0003580927150323987, 0.00040591080323792994, 0.0004537288914434612, 0.0005015470087528229, 0.0005493650678545237, 0.0005971831851638854, 0.000645001302473247, 0.0006928193615749478, 0.0007406374788843095, 0.0007884555961936712, 0.000836273655295372, 0.0008840917726047337, 0.0009319098899140954, 0.0009797279490157962]}, "gradients/conv2.weight": {"_type": "histogram", "values": [1.0, 2.0, 1.0, 1.0, 1.0, 1.0, 2.0, 0.0, 1.0, 1.0, 1.0, 4.0, 3.0, 2.0, 2.0, 4.0, 1.0, 2.0, 5.0, 3.0, 2.0, 1.0, 2.0, 2.0, 1.0, 2.0, 0.0, 1.0, 1.0, 4.0, 2.0, 4.0, 4.0, 9.0, 5.0, 6.0, 6.0, 12.0, 10.0, 7.0, 8.0, 17.0, 12.0, 7.0, 4.0, 5.0, 7.0, 4.0, 5.0, 1.0, 0.0, 1.0, 1.0, 1.0, 0.0, 1.0, 2.0, 0.0, 1.0, 0.0, 0.0, 1.0, 1.0, 2.0], "bins": [-0.0014104682486504316, -0.001373573555611074, -0.0013366788625717163, -0.0012997841695323586, -0.001262889476493001, -0.0012259947834536433, -0.0011891000904142857, -0.001152205397374928, -0.0011153107043355703, -0.0010784160112962127, -0.001041521318256855, -0.0010046266252174973, -0.0009677319321781397, -0.000930837239138782, -0.0008939425460994244, -0.0008570478530600667, -0.0008201531018130481, -0.0007832584087736905, -0.0007463637157343328, -0.0007094690226949751, -0.0006725743296556175, -0.0006356796366162598, -0.0005987848853692412, -0.0005618901923298836, -0.0005249954992905259, -0.00048810080625116825, -0.0004512061132118106, -0.0004143114201724529, -0.00037741672713309526, -0.0003405220340937376, -0.0003036273119505495, -0.0002667326189111918, -0.0002298378967680037, -0.00019294320372864604, -0.00015604851068928838, -0.00011915380309801549, -8.225911005865782e-05, -4.536441701930016e-05, -8.469709428027272e-06, 2.842498361133039e-05, 6.531967665068805e-05, 0.00010221436969004571, 0.00013910906272940338, 0.00017600377032067627, 0.00021289846336003393, 0.0002497931709513068, 0.0002866878639906645, 0.00032358255703002214, 0.0003604772500693798, 0.00039737194310873747, 0.00043426663614809513, 0.0004711613291874528, 0.0005080560222268105, 0.0005449507152661681, 0.0005818454083055258, 0.0006187401013448834, 0.0006556347943842411, 0.0006925294874235988, 0.0007294241804629564, 0.0007663188735023141, 0.0008032135665416718, 0.0008401082595810294, 0.0008770029526203871, 0.0009138976456597447, 0.0009507923969067633]}, "gradients/conv1.bias": {"_type": "histogram", "values": [1.0, 0.0, 0.0, 0.0, 0.0, 0.0, 0.0, 0.0, 0.0, 0.0, 0.0, 0.0, 0.0, 0.0, 0.0, 0.0, 0.0, 0.0, 0.0, 0.0, 0.0, 0.0, 0.0, 0.0, 0.0, 0.0, 0.0, 0.0, 0.0, 0.0, 0.0, 0.0, 0.0, 0.0, 0.0, 0.0, 0.0, 0.0, 0.0, 0.0, 0.0, 0.0, 0.0, 0.0, 0.0, 0.0, 0.0, 0.0, 0.0, 0.0, 0.0, 0.0, 0.0, 0.0, 0.0, 0.0, 0.0, 0.0, 0.0, 0.0, 0.0, 0.0, 0.0, 1.0], "bins": [-0.0005517202662304044, -0.00055140774929896, -0.0005510951741598547, -0.0005507826572284102, -0.0005504700820893049, -0.0005501575651578605, -0.0005498449900187552, -0.0005495324730873108, -0.0005492198979482055, -0.0005489073810167611, -0.0005485948058776557, -0.0005482822889462113, -0.000547969713807106, -0.0005476571968756616, -0.0005473446217365563, -0.0005470321048051119, -0.0005467195878736675, -0.0005464070709422231, -0.0005460944958031178, -0.0005457819788716733, -0.000545469403732568, -0.0005451568868011236, -0.0005448443116620183, -0.0005445317947305739, -0.0005442192195914686, -0.0005439067026600242, -0.0005435941275209188, -0.0005432816105894744, -0.0005429690354503691, -0.0005426565185189247, -0.0005423439433798194, -0.000542031426448375, -0.0005417189095169306, -0.0005414063925854862, -0.0005410938174463809, -0.0005407813005149364, -0.0005404687253758311, -0.0005401562084443867, -0.0005398436333052814, -0.000539531116373837, -0.0005392185412347317, -0.0005389060243032873, -0.000538593449164182, -0.0005382809322327375, -0.0005379683570936322, -0.0005376558401621878, -0.0005373432650230825, -0.0005370307480916381, -0.0005367181729525328, -0.0005364056560210884, -0.000536093080881983, -0.0005357805639505386, -0.0005354679888114333, -0.0005351554718799889, -0.0005348428967408836, -0.0005345303798094392, -0.0005342178628779948, -0.0005339053459465504, -0.000533592770807445, -0.0005332802538760006, -0.0005329676787368953, -0.0005326551618054509, -0.0005323425866663456, -0.0005320300697349012, -0.0005317174945957959]}, "gradients/conv1.weight": {"_type": "histogram", "values": [1.0, 1.0, 0.0, 1.0, 0.0, 0.0, 0.0, 2.0, 1.0, 0.0, 0.0, 3.0, 3.0, 1.0, 0.0, 2.0, 1.0, 2.0, 1.0, 4.0, 0.0, 1.0, 4.0, 3.0, 0.0, 2.0, 1.0, 1.0, 1.0, 2.0, 3.0, 3.0, 2.0, 3.0, 2.0, 1.0, 0.0, 1.0, 0.0, 4.0, 2.0, 4.0, 2.0, 1.0, 3.0, 5.0, 4.0, 1.0, 5.0, 0.0, 0.0, 2.0, 1.0, 2.0, 1.0, 1.0, 1.0, 2.0, 1.0, 1.0, 0.0, 1.0, 0.0, 1.0], "bins": [-0.0014569868799299002, -0.0014221684541553259, -0.0013873501447960734, -0.0013525317190214992, -0.0013177132932469249, -0.0012828949838876724, -0.0012480765581130981, -0.0012132581323385239, -0.0011784398229792714, -0.0011436213972046971, -0.0011088030878454447, -0.0010739846620708704, -0.0010391662362962961, -0.0010043479269370437, -0.0009695295011624694, -0.000934711133595556, -0.0008998927078209817, -0.0008650743402540684, -0.0008302559144794941, -0.0007954375469125807, -0.0007606191793456674, -0.0007258007535710931, -0.0006909823860041797, -0.0006561640184372663, -0.0006213455926626921, -0.0005865272250957787, -0.0005517087993212044, -0.0005168904317542911, -0.0004820720641873777, -0.00044725366751663387, -0.00041243527084589005, -0.0003776169032789767, -0.0003427985357120633, -0.0003079801390413195, -0.0002731617714744061, -0.0002383433748036623, -0.0002035249926848337, -0.0001687066105660051, -0.0001338882138952613, -9.906983177643269e-05, -6.42514496576041e-05, -2.9433063900796697e-05, 5.385321856010705e-06, 4.0203711250796914e-05, 7.502209336962551e-05, 0.0001098404754884541, 0.00014465887215919793, 0.00017947725427802652, 0.00021429563639685512, 0.00024911403306759894, 0.0002839324006345123, 0.00031875079730525613, 0.0003535691648721695, 0.0003883875615429133, 0.00042320595821365714, 0.0004580243257805705, 0.0004928427515551448, 0.0005276611191220582, 0.0005624795448966324, 0.0005972979124635458, 0.0006321162800304592, 0.0006669346475973725, 0.0007017530733719468, 0.0007365714409388602, 0.0007713898085057735]}}