{"graph_0": {"_type": "graph-file", "path": "media/graph/graph_0_summary_93094ea6.graph.json", "sha256": "93094ea676bf42bef0f9b8dbd480afc1567938c5996ff516f53a4dd8a7e4f7d9", "size": 1980}, "train_distance_loss": 0.005285101942718029, "train_terrain_loss": 0.0158246923238039, "train_height_loss": 0.00173796690069139, "min_wall_time": 4.20309868256251, "epoch": 7398, "_step": 7398, "_runtime": 252, "_timestamp": 1614543832, "gradients/linear3.bias": {"_type": "histogram", "values": [1.0, 0.0, 0.0, 0.0, 0.0, 0.0, 0.0, 0.0, 0.0, 0.0, 0.0, 0.0, 0.0, 0.0, 0.0, 0.0, 0.0, 0.0, 0.0, 0.0, 0.0, 0.0, 0.0, 0.0, 0.0, 0.0, 0.0, 0.0, 0.0, 0.0, 0.0, 0.0, 0.0, 0.0, 0.0, 0.0, 0.0, 0.0, 0.0, 0.0, 0.0, 0.0, 0.0, 0.0, 0.0, 0.0, 0.0, 0.0, 0.0, 0.0, 1.0, 0.0, 0.0, 0.0, 0.0, 0.0, 0.0, 0.0, 0.0, 0.0, 0.0, 0.0, 0.0, 1.0], "bins": [-0.45878541469573975, -0.44971126317977905, -0.44063711166381836, -0.43156298995018005, -0.42248883843421936, -0.41341468691825867, -0.404340535402298, -0.39526641368865967, -0.386192262172699, -0.3771181106567383, -0.3680439591407776, -0.3589698374271393, -0.3498956859111786, -0.3408215343952179, -0.3317473828792572, -0.3226732611656189, -0.3135991096496582, -0.3045249581336975, -0.2954508066177368, -0.2863766849040985, -0.2773025333881378, -0.2682283818721771, -0.25915423035621643, -0.2500801086425781, -0.24100592732429504, -0.23193177580833435, -0.22285763919353485, -0.21378348767757416, -0.20470935106277466, -0.19563519954681396, -0.18656104803085327, -0.17748691141605377, -0.16841277480125427, -0.15933862328529358, -0.15026448667049408, -0.1411903351545334, -0.1321161985397339, -0.1230420470237732, -0.1139679029583931, -0.104893758893013, -0.0958196148276329, -0.08674547076225281, -0.07767132669687271, -0.06859718263149261, -0.05952303484082222, -0.05044889077544212, -0.04137474298477173, -0.03230059891939163, -0.023226454854011536, -0.014152309857308865, -0.0050781648606061935, 0.003995981067419052, 0.013070125132799149, 0.022144269198179245, 0.03121841698884964, 0.040292561054229736, 0.04936670511960983, 0.05844084918498993, 0.06751499325037003, 0.07658913731575012, 0.08566328883171082, 0.09473742544651031, 0.10381157696247101, 0.1128857210278511, 0.1219598650932312]}, "gradients/linear3.weight": {"_type": "histogram", "values": [1.0, 0.0, 0.0, 0.0, 0.0, 0.0, 0.0, 0.0, 1.0, 0.0, 0.0, 0.0, 0.0, 1.0, 0.0, 0.0, 1.0, 0.0, 1.0, 1.0, 0.0, 1.0, 0.0, 3.0, 3.0, 2.0, 1.0, 3.0, 1.0, 0.0, 1.0, 0.0, 1.0, 3.0, 1.0, 3.0, 1.0, 3.0, 2.0, 1.0, 1.0, 2.0, 3.0, 1.0, 0.0, 0.0, 2.0, 0.0, 0.0, 3.0, 96.0, 5.0, 3.0, 5.0, 5.0, 6.0, 6.0, 7.0, 5.0, 3.0, 2.0, 0.0, 0.0, 1.0], "bins": [-0.28660595417022705, -0.2809685170650482, -0.2753310799598694, -0.26969367265701294, -0.2640562355518341, -0.2584187984466553, -0.25278136134147644, -0.2471439242362976, -0.24150648713111877, -0.23586905002593994, -0.2302316278219223, -0.22459419071674347, -0.21895675361156464, -0.213319331407547, -0.20768189430236816, -0.20204445719718933, -0.1964070349931717, -0.19076959788799286, -0.18513217568397522, -0.1794947385787964, -0.17385730147361755, -0.16821986436843872, -0.16258244216442108, -0.15694500505924225, -0.1513075828552246, -0.14567014575004578, -0.14003272354602814, -0.1343952864408493, -0.12875784933567047, -0.12312041968107224, -0.117482990026474, -0.11184555292129517, -0.10620812326669693, -0.1005706936120987, -0.09493325650691986, -0.08929582685232162, -0.08365839719772339, -0.07802096009254456, -0.07238353043794632, -0.06674610078334808, -0.06110866367816925, -0.055471230298280716, -0.04983379691839218, -0.044196367263793945, -0.03855893388390541, -0.032921500504016876, -0.02728407084941864, -0.021646637469530106, -0.01600920408964157, -0.010371771641075611, -0.004734339192509651, 0.0009030923247337341, 0.006540525704622269, 0.012177959084510803, 0.01781538873910904, 0.023452822118997574, 0.02909025549888611, 0.03472768887877464, 0.04036512225866318, 0.046002551913261414, 0.05163998529314995, 0.05727741867303848, 0.06291484832763672, 0.06855228543281555, 0.07418971508741379]}, "gradients/linear2.bias": {"_type": "histogram", "values": [1.0, 1.0, 0.0, 0.0, 0.0, 1.0, 0.0, 1.0, 2.0, 1.0, 0.0, 1.0, 0.0, 2.0, 0.0, 2.0, 1.0, 2.0, 0.0, 3.0, 1.0, 2.0, 1.0, 1.0, 0.0, 2.0, 1.0, 12.0, 0.0, 3.0, 0.0, 0.0, 0.0, 1.0, 0.0, 0.0, 1.0, 1.0, 4.0, 3.0, 1.0, 0.0, 0.0, 1.0, 3.0, 0.0, 1.0, 0.0, 0.0, 0.0, 0.0, 2.0, 2.0, 1.0, 0.0, 0.0, 0.0, 0.0, 0.0, 0.0, 0.0, 1.0, 0.0, 1.0], "bins": [-0.05757521092891693, -0.05551605671644211, -0.05345689877867699, -0.051397740840911865, -0.04933858662843704, -0.04727943241596222, -0.0452202744781971, -0.043161116540431976, -0.04110196232795715, -0.03904280811548233, -0.03698365017771721, -0.03492449223995209, -0.032865338027477264, -0.030806181952357292, -0.02874702587723732, -0.026687869802117348, -0.024628713726997375, -0.022569557651877403, -0.02051040157675743, -0.01845124550163746, -0.016392089426517487, -0.014332933351397514, -0.012273777276277542, -0.01021462120115757, -0.008155465126037598, -0.006096309050917625, -0.004037152975797653, -0.001977996900677681, 8.115917444229126e-05, 0.0021403152495622635, 0.004199471324682236, 0.006258627399802208, 0.008317790925502777, 0.01037694700062275, 0.012436103075742722, 0.014495259150862694, 0.016554415225982666, 0.018613571301102638, 0.02067272737622261, 0.022731883451342583, 0.024791039526462555, 0.026850195601582527, 0.0289093516767025, 0.03096850775182247, 0.033027663826942444, 0.03508681803941727, 0.03714597597718239, 0.03920513391494751, 0.04126428812742233, 0.043323442339897156, 0.04538260027766228, 0.0474417582154274, 0.04950091242790222, 0.051560066640377045, 0.053619224578142166, 0.05567838251590729, 0.05773753672838211, 0.059796690940856934, 0.061855848878622055, 0.06391500681638718, 0.065974161028862, 0.06803331524133682, 0.07009246945381165, 0.07215163111686707, 0.07421078532934189]}, "gradients/linear2.weight": {"_type": "histogram", "values": [2.0, 2.0, 0.0, 0.0, 1.0, 3.0, 4.0, 2.0, 3.0, 13.0, 7.0, 8.0, 6.0, 20.0, 15.0, 34.0, 29.0, 32.0, 49.0, 53.0, 71.0, 88.0, 106.0, 110.0, 160.0, 159.0, 202.0, 428.0, 1306.0, 158.0, 98.0, 114.0, 136.0, 120.0, 74.0, 87.0, 73.0, 43.0, 47.0, 56.0, 30.0, 17.0, 11.0, 25.0, 26.0, 14.0, 8.0, 4.0, 6.0, 6.0, 5.0, 9.0, 6.0, 1.0, 2.0, 0.0, 2.0, 0.0, 1.0, 0.0, 1.0, 1.0, 0.0, 2.0], "bins": [-0.05187486112117767, -0.05002333223819733, -0.04817180335521698, -0.04632027447223663, -0.04446874558925629, -0.04261721670627594, -0.04076568782329559, -0.03891415894031525, -0.0370626300573349, -0.03521110117435455, -0.03335957229137421, -0.03150804340839386, -0.029656514525413513, -0.027804985642433167, -0.02595345675945282, -0.024101927876472473, -0.022250400856137276, -0.02039887197315693, -0.018547343090176582, -0.016695814207196236, -0.014844285324215889, -0.012992757372558117, -0.01114122848957777, -0.009289699606597424, -0.007438170723617077, -0.00558664184063673, -0.003735113190487027, -0.0018835845403373241, -3.205565735697746e-05, 0.001819472759962082, 0.0036710016429424286, 0.005522530525922775, 0.007374059408903122, 0.009225588291883469, 0.011077117174863815, 0.012928646057844162, 0.014780174940824509, 0.016631703823804855, 0.018483232706785202, 0.02033476158976555, 0.022186290472745895, 0.024037819355726242, 0.02588934823870659, 0.027740877121686935, 0.029592406004667282, 0.03144393488764763, 0.033295463770627975, 0.03514699265360832, 0.03699851781129837, 0.03885004669427872, 0.040701575577259064, 0.04255310446023941, 0.04440463334321976, 0.046256162226200104, 0.04810769110918045, 0.0499592199921608, 0.051810748875141144, 0.05366227775812149, 0.05551380664110184, 0.057365335524082184, 0.05921686440706253, 0.06106839329004288, 0.06291992217302322, 0.06477145105600357, 0.06662297993898392]}, "gradients/linear1.bias": {"_type": "histogram", "values": [1.0, 0.0, 2.0, 1.0, 1.0, 0.0, 0.0, 0.0, 1.0, 1.0, 1.0, 2.0, 1.0, 2.0, 0.0, 1.0, 1.0, 1.0, 3.0, 1.0, 1.0, 0.0, 0.0, 0.0, 2.0, 0.0, 1.0, 1.0, 5.0, 2.0, 2.0, 1.0, 2.0, 2.0, 4.0, 0.0, 0.0, 2.0, 0.0, 2.0, 0.0, 0.0, 0.0, 2.0, 1.0, 2.0, 1.0, 1.0, 2.0, 0.0, 2.0, 1.0, 0.0, 1.0, 0.0, 2.0, 1.0, 0.0, 0.0, 0.0, 0.0, 0.0, 0.0, 1.0], "bins": [-0.035776205360889435, -0.0345388762652874, -0.033301543444395065, -0.03206421434879303, -0.030826881527900696, -0.02958955056965351, -0.028352219611406326, -0.02711489051580429, -0.025877557694911957, -0.024640226736664772, -0.023402895778417587, -0.022165564820170403, -0.020928233861923218, -0.019690902903676033, -0.01845357194542885, -0.017216242849826813, -0.015978911891579628, -0.014741580933332443, -0.013504249975085258, -0.012266919016838074, -0.011029588058590889, -0.009792257100343704, -0.008554927073419094, -0.007317596115171909, -0.006080265156924725, -0.00484293419867754, -0.0036056034732609987, -0.0023682727478444576, -0.0011309417895972729, 0.00010638916864991188, 0.0013437196612358093, 0.002581050619482994, 0.003818381577730179, 0.005055712535977364, 0.006293043494224548, 0.007530373986810446, 0.008767705410718918, 0.010005036368966103, 0.011242366395890713, 0.012479697354137897, 0.013717028312385082, 0.014954359270632267, 0.016191689297556877, 0.017429020255804062, 0.018666351214051247, 0.01990368217229843, 0.021141013130545616, 0.0223783440887928, 0.023615675047039986, 0.02485300600528717, 0.026090336963534355, 0.02732766792178154, 0.028564998880028725, 0.02980232983827591, 0.031039658933877945, 0.03227699175477028, 0.033514320850372314, 0.03475164994597435, 0.035988982766866684, 0.03722631186246872, 0.03846364468336105, 0.03970097377896309, 0.04093830659985542, 0.04217563569545746, 0.04341296851634979]}, "gradients/linear1.weight": {"_type": "histogram", "values": [1.0, 0.0, 0.0, 0.0, 0.0, 1.0, 4.0, 3.0, 4.0, 2.0, 3.0, 2.0, 10.0, 24.0, 15.0, 19.0, 17.0, 33.0, 32.0, 50.0, 49.0, 60.0, 74.0, 71.0, 65.0, 94.0, 108.0, 111.0, 124.0, 148.0, 189.0, 209.0, 258.0, 485.0, 839.0, 286.0, 213.0, 183.0, 128.0, 126.0, 110.0, 115.0, 106.0, 95.0, 63.0, 60.0, 74.0, 62.0, 38.0, 33.0, 25.0, 18.0, 16.0, 22.0, 23.0, 7.0, 12.0, 1.0, 1.0, 2.0, 1.0, 1.0, 2.0, 1.0], "bins": [-0.03301222249865532, -0.032046664506196976, -0.031081104651093483, -0.03011554665863514, -0.029149986803531647, -0.028184428811073303, -0.02721887081861496, -0.026253312826156616, -0.025287752971053123, -0.02432219497859478, -0.023356635123491287, -0.022391077131032944, -0.0214255191385746, -0.020459959283471107, -0.019494401291012764, -0.01852884143590927, -0.017563283443450928, -0.016597725450992584, -0.01563216559588909, -0.014666607603430748, -0.01370104867964983, -0.012735489755868912, -0.011769931763410568, -0.01080437283962965, -0.009838813915848732, -0.008873254992067814, -0.007907696068286896, -0.006942138075828552, -0.005976579152047634, -0.005011020228266716, -0.004045461770147085, -0.0030799033120274544, -0.0021143443882465363, -0.0011487856972962618, -0.00018322700634598732, 0.0007823316846042871, 0.0017478903755545616, 0.0027134492993354797, 0.0036790077574551105, 0.004644566215574741, 0.0056101251393556595, 0.006575684063136578, 0.007541242521256208, 0.00850680097937584, 0.009472359903156757, 0.010437918826937675, 0.011403476819396019, 0.012369035743176937, 0.013334594666957855, 0.014300153590738773, 0.015265712514519691, 0.016231270506978035, 0.017196830362081528, 0.01816238835453987, 0.019127946346998215, 0.020093504339456558, 0.02105906419456005, 0.022024622187018394, 0.022990182042121887, 0.02395574003458023, 0.024921298027038574, 0.025886857882142067, 0.02685241587460041, 0.027817975729703903, 0.028783533722162247]}, "gradients/encoder_linear.bias": {"_type": "histogram", "values": [1.0, 0.0, 0.0, 0.0, 0.0, 0.0, 0.0, 0.0, 0.0, 1.0, 0.0, 0.0, 0.0, 0.0, 0.0, 0.0, 1.0, 0.0, 0.0, 1.0, 3.0, 1.0, 3.0, 1.0, 2.0, 1.0, 1.0, 2.0, 1.0, 3.0, 1.0, 1.0, 4.0, 2.0, 4.0, 1.0, 2.0, 2.0, 2.0, 1.0, 0.0, 1.0, 0.0, 2.0, 2.0, 1.0, 0.0, 2.0, 2.0, 0.0, 2.0, 1.0, 0.0, 3.0, 0.0, 0.0, 0.0, 1.0, 1.0, 2.0, 0.0, 1.0, 0.0, 1.0], "bins": [-0.03376106545329094, -0.03285905346274376, -0.03195704519748688, -0.031055035069584846, -0.030153024941682816, -0.029251012951135635, -0.028349002823233604, -0.027446992695331573, -0.026544982567429543, -0.02564297243952751, -0.02474096231162548, -0.02383895218372345, -0.02293694019317627, -0.022034931927919388, -0.021132919937372208, -0.020230909809470177, -0.019328899681568146, -0.018426889553666115, -0.017524879425764084, -0.016622869297862053, -0.015720859169960022, -0.014818848110735416, -0.01391683705151081, -0.01301482692360878, -0.012112816795706749, -0.011210806667804718, -0.010308796539902687, -0.009406785480678082, -0.00850477535277605, -0.00760276522487402, -0.006700754631310701, -0.005798744037747383, -0.004896733909845352, -0.003994723781943321, -0.003092713188380003, -0.0021907028276473284, -0.0012886924669146538, -0.00038668233901262283, 0.0005153282545506954, 0.0014173388481140137, 0.0023193489760160446, 0.003221359336748719, 0.004123369697481394, 0.005025380291044712, 0.005927390418946743, 0.006829400546848774, 0.007731411140412092, 0.00863342173397541, 0.009535431861877441, 0.010437441989779472, 0.011339452117681503, 0.012241463176906109, 0.01314347330480814, 0.01404548343271017, 0.014947494491934776, 0.015849504619836807, 0.016751514747738838, 0.01765352487564087, 0.0185555350035429, 0.01945754513144493, 0.02035955712199211, 0.021261565387248993, 0.022163577377796173, 0.023065587505698204, 0.023967597633600235]}, "gradients/encoder_linear.weight": {"_type": "histogram", "values": [8.0, 21.0, 20.0, 10.0, 10.0, 14.0, 11.0, 4.0, 0.0, 9.0, 37.0, 15.0, 28.0, 42.0, 43.0, 20.0, 16.0, 39.0, 30.0, 69.0, 109.0, 195.0, 160.0, 276.0, 271.0, 278.0, 422.0, 464.0, 638.0, 538.0, 651.0, 821.0, 1269.0, 1438.0, 1828.0, 1935.0, 2012.0, 1757.0, 1042.0, 924.0, 894.0, 993.0, 910.0, 699.0, 818.0, 451.0, 407.0, 477.0, 262.0, 185.0, 335.0, 235.0, 192.0, 125.0, 75.0, 86.0, 110.0, 104.0, 96.0, 55.0, 41.0, 15.0, 25.0, 24.0], "bins": [-0.008161162957549095, -0.007943907752633095, -0.007726652082055807, -0.007509396877139807, -0.007292141672223806, -0.007074886001646519, -0.006857630796730518, -0.006640375591814518, -0.006423120386898518, -0.006205865181982517, -0.00598860951140523, -0.005771354306489229, -0.005554099101573229, -0.005336843430995941, -0.005119588226079941, -0.00490233302116394, -0.004685077350586653, -0.004467822145670652, -0.004250566475093365, -0.004033311270177364, -0.003816056065261364, -0.00359880062751472, -0.003381545189768076, -0.0031642899848520756, -0.0029470345471054316, -0.0027297791093587875, -0.002512523904442787, -0.002295268466696143, -0.002078013028949499, -0.0018607578240334988, -0.0016435023862868547, -0.0014262470649555326, -0.0012089917436242104, -0.0009917364222928882, -0.0007744810427539051, -0.000557225663214922, -0.00033997034188359976, -0.00012271502055227757, 9.454041719436646e-05, 0.00031179573852568865, 0.0005290510598570108, 0.000746306381188333, 0.0009635617607273161, 0.0011808171402662992, 0.0013980724615976214, 0.0016153277829289436, 0.0018325832206755877, 0.0020498386584222317, 0.002267093863338232, 0.002484349301084876, 0.0027016045060008764, 0.0029188599437475204, 0.003136115148663521, 0.003353370586410165, 0.003570626024156809, 0.0037878812290728092, 0.004005136899650097, 0.004222392104566097, 0.004439647775143385, 0.004656902980059385, 0.004874158184975386, 0.005091413855552673, 0.005308669060468674, 0.005525924265384674, 0.0057431794703006744]}, "gradients/conv3.bias": {"_type": "histogram", "values": [1.0, 0.0, 0.0, 0.0, 0.0, 0.0, 0.0, 0.0, 0.0, 0.0, 1.0, 0.0, 0.0, 0.0, 0.0, 0.0, 0.0, 0.0, 0.0, 0.0, 0.0, 0.0, 0.0, 0.0, 0.0, 0.0, 0.0, 0.0, 0.0, 0.0, 1.0, 1.0, 0.0, 0.0, 0.0, 0.0, 1.0, 0.0, 0.0, 0.0, 0.0, 0.0, 0.0, 0.0, 0.0, 0.0, 0.0, 1.0, 0.0, 0.0, 0.0, 0.0, 0.0, 0.0, 0.0, 0.0, 0.0, 0.0, 0.0, 0.0, 1.0, 0.0, 0.0, 1.0], "bins": [-0.055838145315647125, -0.05376952886581421, -0.05170091241598129, -0.049632295966148376, -0.04756367951631546, -0.045495063066482544, -0.04342644661664963, -0.04135783016681671, -0.039289213716983795, -0.03722059726715088, -0.03515198081731796, -0.033083364367485046, -0.03101474791765213, -0.028946131467819214, -0.02687751315534115, -0.024808896705508232, -0.022740278393030167, -0.02067166194319725, -0.018603045493364334, -0.016534429043531418, -0.014465811662375927, -0.01239719521254301, -0.01032857783138752, -0.008259961381554604, -0.006191344931721687, -0.004122728481888771, -0.0020541115663945675, 1.4505349099636078e-05, 0.0020831217989325523, 0.004151738248765469, 0.0062203556299209595, 0.008288972079753876, 0.010357588529586792, 0.012426204979419708, 0.014494821429252625, 0.01656343787908554, 0.018632054328918457, 0.020700670778751373, 0.02276928909122944, 0.024837905541062355, 0.02690652199089527, 0.028975138440728188, 0.031043754890561104, 0.03311237320303917, 0.035180989652872086, 0.037249606102705, 0.03931822255253792, 0.041386839002370834, 0.04345545545220375, 0.04552407190203667, 0.04759268835186958, 0.0496613048017025, 0.051729921251535416, 0.05379853770136833, 0.05586715787649155, 0.05793577432632446, 0.06000439077615738, 0.062073007225990295, 0.06414162367582321, 0.06621024012565613, 0.06827885657548904, 0.07034747302532196, 0.07241608947515488, 0.07448470592498779, 0.07655332237482071]}, "gradients/conv3.weight": {"_type": "histogram", "values": [1.0, 1.0, 0.0, 2.0, 2.0, 1.0, 3.0, 1.0, 2.0, 0.0, 4.0, 2.0, 9.0, 8.0, 1.0, 2.0, 7.0, 6.0, 6.0, 6.0, 2.0, 0.0, 4.0, 2.0, 0.0, 0.0, 0.0, 7.0, 24.0, 23.0, 15.0, 9.0, 3.0, 12.0, 12.0, 13.0, 5.0, 5.0, 6.0, 6.0, 2.0, 2.0, 7.0, 14.0, 8.0, 5.0, 3.0, 3.0, 5.0, 2.0, 4.0, 4.0, 1.0, 1.0, 1.0, 4.0, 1.0, 1.0, 1.0, 2.0, 2.0, 1.0, 0.0, 2.0], "bins": [-0.016668306663632393, -0.016040140762925148, -0.015411976724863052, -0.014783810824155807, -0.014155645854771137, -0.013527480885386467, -0.012899315916001797, -0.012271150946617126, -0.011642985045909882, -0.011014820076525211, -0.010386655107140541, -0.009758489206433296, -0.009130324237048626, -0.008502159267663956, -0.007873994298279285, -0.007245828863233328, -0.006617664359509945, -0.005989499390125275, -0.005361333955079317, -0.004733168985694647, -0.004105003550648689, -0.003476838581264019, -0.0028486736118793488, -0.002220508176833391, -0.001592343207448721, -0.0009641780634410679, -0.00033601291943341494, 0.00029215216636657715, 0.0009203173685818911, 0.001548482570797205, 0.0021766475401818752, 0.002804812975227833, 0.003432977944612503, 0.004061142913997173, 0.004689308349043131, 0.005317473318427801, 0.005945638753473759, 0.006573803722858429, 0.007201968692243099, 0.00783013366162777, 0.008458299562335014, 0.009086464531719685, 0.009714629501104355, 0.0103427954018116, 0.01097096037119627, 0.01159912534058094, 0.01222729030996561, 0.01285545527935028, 0.013483620248734951, 0.014111785218119621, 0.014739950187504292, 0.015368115156888962, 0.015996281057596207, 0.01662444695830345, 0.017252610996365547, 0.017880776897072792, 0.018508940935134888, 0.019137106835842133, 0.019765270873904228, 0.020393436774611473, 0.02102160081267357, 0.021649766713380814, 0.02227793261408806, 0.022906096652150154, 0.0235342625528574]}, "gradients/conv2.bias": {"_type": "histogram", "values": [1.0, 0.0, 0.0, 0.0, 0.0, 0.0, 0.0, 0.0, 0.0, 0.0, 0.0, 0.0, 0.0, 0.0, 0.0, 0.0, 0.0, 0.0, 0.0, 0.0, 0.0, 0.0, 0.0, 0.0, 0.0, 0.0, 0.0, 0.0, 0.0, 0.0, 0.0, 0.0, 0.0, 0.0, 0.0, 0.0, 0.0, 0.0, 0.0, 0.0, 0.0, 0.0, 1.0, 0.0, 0.0, 0.0, 0.0, 1.0, 0.0, 0.0, 0.0, 0.0, 0.0, 0.0, 0.0, 0.0, 0.0, 0.0, 0.0, 0.0, 0.0, 0.0, 0.0, 1.0], "bins": [-0.013839105144143105, -0.013560951687395573, -0.01328279823064804, -0.013004643842577934, -0.012726490385830402, -0.01244833692908287, -0.012170183472335339, -0.011892030015587807, -0.0116138756275177, -0.011335722170770168, -0.011057568714022636, -0.01077941432595253, -0.010501260869204998, -0.010223107412457466, -0.009944953955709934, -0.009666800498962402, -0.00938864704221487, -0.009110493585467339, -0.008832340128719807, -0.0085541857406497, -0.008276032283902168, -0.007997878827154636, -0.0077197253704071045, -0.007441571913659573, -0.007163417991250753, -0.0068852645345032215, -0.006607110612094402, -0.00632895715534687, -0.0060508036985993385, -0.005772649776190519, -0.0054944963194429874, -0.005216342397034168, -0.004938188940286636, -0.0046600354835391045, -0.004381881561130285, -0.004103728104382753, -0.003825574414804578, -0.0035474207252264023, -0.0032692672684788704, -0.002991113578900695, -0.0027129598893225193, -0.0024348061997443438, -0.002156652510166168, -0.0018784990534186363, -0.0016003453638404608, -0.0013221916742622852, -0.0010440381010994315, -0.0007658845279365778, -0.00048773083835840225, -0.00020957720698788762, 6.857642438262701e-05, 0.00034673005575314164, 0.0006248836871236563, 0.0009030373767018318, 0.0011811909498646855, 0.0014593445230275393, 0.0017374982126057148, 0.0020156519021838903, 0.002293805591762066, 0.0025719590485095978, 0.0028501127380877733, 0.003128266427665949, 0.0034064198844134808, 0.0036845735739916563, 0.003962727263569832]}, "gradients/conv2.weight": {"_type": "histogram", "values": [4.0, 4.0, 1.0, 3.0, 2.0, 1.0, 3.0, 1.0, 0.0, 4.0, 1.0, 0.0, 0.0, 1.0, 0.0, 0.0, 0.0, 1.0, 1.0, 0.0, 4.0, 4.0, 10.0, 9.0, 6.0, 5.0, 2.0, 4.0, 6.0, 7.0, 12.0, 10.0, 8.0, 12.0, 5.0, 4.0, 5.0, 7.0, 5.0, 1.0, 3.0, 6.0, 8.0, 2.0, 1.0, 5.0, 4.0, 2.0, 1.0, 3.0, 1.0, 2.0, 5.0, 0.0, 0.0, 0.0, 2.0, 1.0, 0.0, 0.0, 0.0, 0.0, 0.0, 1.0], "bins": [-0.007361705414950848, -0.007148291915655136, -0.006934878416359425, -0.006721464917063713, -0.0065080514177680016, -0.00629463791847229, -0.0060812244191765785, -0.005867811385542154, -0.005654397886246443, -0.005440984386950731, -0.00522757088765502, -0.005014157388359308, -0.004800743889063597, -0.0045873308554291725, -0.004373917356133461, -0.0041605038568377495, -0.003947090357542038, -0.0037336768582463264, -0.003520263358950615, -0.0033068498596549034, -0.0030934365931898355, -0.002880023093894124, -0.0026666095945984125, -0.0024531963281333447, -0.002239782363176346, -0.0020263688638806343, -0.0018129554810002446, -0.001599541981704533, -0.0013861285988241434, -0.001172715099528432, -0.0009593016002327204, -0.0007458882173523307, -0.000532474834471941, -0.0003190613933838904, -0.00010564792319200933, 0.00010776554699987173, 0.00032117898808792233, 0.0005345924291759729, 0.0007480059284716845, 0.0009614193113520741, 0.0011748328106477857, 0.0013882463099434972, 0.0016016596928238869, 0.0018150731921195984, 0.00202848669141531, 0.0022419001907110214, 0.002455313690006733, 0.002668726956471801, 0.0028821404557675123, 0.003095553955063224, 0.0033089674543589354, 0.0035223807208240032, 0.0037357942201197147, 0.003949207719415426, 0.004162621218711138, 0.004376034718006849, 0.004589448217302561, 0.004802861716598272, 0.005016275215893984, 0.005229688715189695, 0.005443102214485407, 0.005656515248119831, 0.005869928747415543, 0.006083342246711254, 0.006296755746006966]}, "gradients/conv1.bias": {"_type": "histogram", "values": [1.0, 0.0, 0.0, 0.0, 0.0, 0.0, 0.0, 0.0, 0.0, 0.0, 0.0, 0.0, 0.0, 0.0, 0.0, 0.0, 0.0, 0.0, 0.0, 0.0, 0.0, 0.0, 0.0, 0.0, 0.0, 0.0, 0.0, 0.0, 0.0, 0.0, 0.0, 0.0, 0.0, 0.0, 0.0, 0.0, 0.0, 0.0, 0.0, 0.0, 0.0, 0.0, 0.0, 0.0, 0.0, 0.0, 0.0, 0.0, 0.0, 0.0, 0.0, 0.0, 0.0, 0.0, 0.0, 0.0, 0.0, 0.0, 0.0, 0.0, 0.0, 0.0, 0.0, 1.0], "bins": [-0.0017064325511455536, -0.0016384723130613565, -0.0015705119585618377, -0.0015025517204776406, -0.0014345913659781218, -0.0013666311278939247, -0.0012986708898097277, -0.0012307105353102088, -0.00116275018081069, -0.0010947899427264929, -0.001026829588226974, -0.000958869350142777, -0.0008909089956432581, -0.000822948757559061, -0.0007549884612672031, -0.0006870281649753451, -0.0006190679268911481, -0.0005511076305992901, -0.0004831473343074322, -0.0004151870671194047, -0.0003472267708275467, -0.00027926647453568876, -0.00021130620734766126, -0.0001433459110558033, -7.538561476394534e-05, -7.4253257480449975e-06, 6.0534963267855346e-05, 0.00012849524500779808, 0.00019645554129965603, 0.000264415837591514, 0.0003323761047795415, 0.00040033640107139945, 0.0004682966973632574, 0.0005362569936551154, 0.0006042172899469733, 0.0006721775280311704, 0.0007401378825306892, 0.0008080981206148863, 0.0008760584169067442, 0.0009440187131986022, 0.001011979067698121, 0.0010799393057823181, 0.001147899660281837, 0.001215859898366034, 0.001283820252865553, 0.00135178049094975, 0.001419740729033947, 0.0014877010835334659, 0.001555661321617663, 0.00162362155970186, 0.0016915819142013788, 0.0017595421522855759, 0.0018275025067850947, 0.0018954627448692918, 0.0019634230993688107, 0.0020313833374530077, 0.0020993435755372047, 0.002167303813621402, 0.002235264051705599, 0.0023032245226204395, 0.0023711847607046366, 0.0024391449987888336, 0.0025071052368730307, 0.0025750654749572277, 0.0026430259458720684]}, "gradients/conv1.weight": {"_type": "histogram", "values": [2.0, 0.0, 0.0, 1.0, 2.0, 2.0, 1.0, 0.0, 1.0, 3.0, 3.0, 2.0, 2.0, 3.0, 1.0, 5.0, 1.0, 2.0, 4.0, 2.0, 1.0, 1.0, 5.0, 2.0, 1.0, 0.0, 2.0, 1.0, 1.0, 0.0, 1.0, 2.0, 3.0, 0.0, 0.0, 0.0, 0.0, 2.0, 0.0, 0.0, 2.0, 1.0, 3.0, 1.0, 0.0, 0.0, 3.0, 1.0, 3.0, 1.0, 0.0, 3.0, 5.0, 1.0, 0.0, 2.0, 2.0, 1.0, 0.0, 1.0, 1.0, 2.0, 3.0, 3.0], "bins": [-0.001850804896093905, -0.0017325523076578975, -0.0016142998356372118, -0.0014960472472012043, -0.0013777947751805186, -0.0012595421867445111, -0.0011412897147238255, -0.001023037126287818, -0.0009047845960594714, -0.0007865320658311248, -0.0006682795356027782, -0.0005500270053744316, -0.00043177444604225457, -0.0003135218867100775, -0.00019526935648173094, -7.701682625338435e-05, 4.1235703974962234e-05, 0.00015948823420330882, 0.0002777407644316554, 0.00039599332376383245, 0.0005142458248883486, 0.0006324984133243561, 0.0007507509435527027, 0.0008690034737810493, 0.000987255945801735, 0.0011055085342377424, 0.001223761006258428, 0.0013420135946944356, 0.0014602660667151213, 0.0015785186551511288, 0.0016967712435871363, 0.001815023715607822, 0.0019332764204591513, 0.0020515290088951588, 0.0021697815973311663, 0.00228803395293653, 0.0024062865413725376, 0.002524539129808545, 0.0026427917182445526, 0.0027610440738499165, 0.002879296662285924, 0.0029975492507219315, 0.003115801839157939, 0.003234054194763303, 0.0033523067831993103, 0.003470559371635318, 0.0035888119600713253, 0.003707064315676689, 0.0038253171369433403, 0.003943569492548704, 0.004061822313815355, 0.004180074669420719, 0.00429832749068737, 0.004416579846292734, 0.004534832201898098, 0.004653085023164749, 0.004771337378770113, 0.004889589734375477, 0.005007842555642128, 0.005126094911247492, 0.005244347732514143, 0.005362600088119507, 0.005480852443724871, 0.005599105264991522, 0.005717357620596886]}}