{"graph_0": {"_type": "graph-file", "path": "media/graph/graph_0_summary_082afbb5.graph.json", "sha256": "082afbb54fc132f35af032383bf58eafaff95e2e367229210530147897d62d8e", "size": 1980}, "train_distance_loss": 0.042937979102134705, "train_terrain_loss": 0.007425422314554453, "train_height_loss": 0.0012927264906466007, "min_wall_time": 4.589298355579376, "epoch": 9999, "_step": 9999, "_runtime": 275, "_timestamp": 1614544262, "gradients/linear3.bias": {"_type": "histogram", "values": [1.0, 0.0, 0.0, 0.0, 0.0, 0.0, 0.0, 0.0, 0.0, 0.0, 0.0, 0.0, 0.0, 0.0, 0.0, 0.0, 0.0, 0.0, 1.0, 0.0, 0.0, 0.0, 0.0, 0.0, 0.0, 0.0, 0.0, 0.0, 0.0, 0.0, 0.0, 0.0, 0.0, 0.0, 0.0, 0.0, 0.0, 0.0, 0.0, 0.0, 0.0, 0.0, 0.0, 0.0, 0.0, 0.0, 0.0, 0.0, 0.0, 0.0, 0.0, 0.0, 0.0, 0.0, 0.0, 0.0, 0.0, 0.0, 0.0, 0.0, 0.0, 0.0, 0.0, 1.0], "bins": [-0.16714748740196228, -0.1645267903804779, -0.16190610826015472, -0.15928541123867035, -0.15666471421718597, -0.1540440320968628, -0.15142333507537842, -0.14880263805389404, -0.14618194103240967, -0.1435612440109253, -0.1409405618906021, -0.13831986486911774, -0.13569916784763336, -0.13307848572731018, -0.1304577887058258, -0.12783709168434143, -0.12521640956401825, -0.12259571999311447, -0.1199750229716301, -0.11735433340072632, -0.11473363637924194, -0.11211294680833817, -0.10949225723743439, -0.10687156021595001, -0.10425087064504623, -0.10163018107414246, -0.09900948405265808, -0.0963887944817543, -0.09376810491085052, -0.09114740788936615, -0.08852671831846237, -0.0859060287475586, -0.08328533172607422, -0.08066464215517044, -0.07804394513368607, -0.07542325556278229, -0.07280255854129791, -0.07018186897039413, -0.06756117939949036, -0.06494048237800598, -0.062319789081811905, -0.05969909578561783, -0.05707840621471405, -0.054457712918519974, -0.0518370196223259, -0.04921632632613182, -0.046595633029937744, -0.043974943459033966, -0.04135425016283989, -0.03873355686664581, -0.036112867295742035, -0.03349217399954796, -0.030871480703353882, -0.028250787407159805, -0.025630095973610878, -0.02300940454006195, -0.020388711243867874, -0.017768017947673798, -0.01514732651412487, -0.012526634149253368, -0.009905941784381866, -0.0072852494195103645, -0.004664557054638863, -0.0020438656210899353, 0.0005768270930275321]}, "gradients/linear3.weight": {"_type": "histogram", "values": [2.0, 0.0, 0.0, 0.0, 0.0, 0.0, 0.0, 1.0, 0.0, 0.0, 0.0, 0.0, 2.0, 0.0, 1.0, 0.0, 1.0, 2.0, 0.0, 2.0, 1.0, 0.0, 0.0, 2.0, 2.0, 3.0, 0.0, 1.0, 2.0, 0.0, 5.0, 1.0, 1.0, 0.0, 1.0, 0.0, 3.0, 1.0, 3.0, 2.0, 0.0, 2.0, 3.0, 1.0, 2.0, 4.0, 4.0, 4.0, 4.0, 2.0, 4.0, 2.0, 4.0, 1.0, 2.0, 2.0, 2.0, 2.0, 2.0, 3.0, 3.0, 2.0, 4.0, 94.0], "bins": [-0.09429527819156647, -0.09281882643699646, -0.09134237468242645, -0.08986591547727585, -0.08838946372270584, -0.08691301196813583, -0.08543656021356583, -0.08396010845899582, -0.08248364925384521, -0.08100719749927521, -0.0795307457447052, -0.0780542865395546, -0.07657783478498459, -0.07510138303041458, -0.07362493127584457, -0.07214847952127457, -0.07067202776670456, -0.06919557601213455, -0.06771912425756454, -0.06624266505241394, -0.06476621329784393, -0.06328976154327393, -0.06181330978870392, -0.06033685430884361, -0.05886039882898331, -0.0573839470744133, -0.055907491594552994, -0.054431039839982986, -0.05295458436012268, -0.05147813260555267, -0.050001680850982666, -0.04852522537112236, -0.047048769891262054, -0.04557231813669205, -0.04409586265683174, -0.042619410902261734, -0.04114295542240143, -0.03966650366783142, -0.038190051913261414, -0.03671359643340111, -0.0352371446788311, -0.03376069292426109, -0.03228423744440079, -0.03080778568983078, -0.029331332072615623, -0.027854878455400467, -0.02637842483818531, -0.024901971220970154, -0.023425519466400146, -0.02194906584918499, -0.020472612231969833, -0.018996160477399826, -0.01751970686018467, -0.016043253242969513, -0.014566799625754356, -0.013090346939861774, -0.011613893322646618, -0.010137439705431461, -0.00866098701953888, -0.007184533402323723, -0.005708080250769854, -0.004231627099215984, -0.002755173482000828, -0.0012787207961082458, 0.00019773317035287619]}, "gradients/linear2.bias": {"_type": "histogram", "values": [1.0, 0.0, 0.0, 0.0, 0.0, 0.0, 2.0, 0.0, 1.0, 0.0, 1.0, 1.0, 0.0, 1.0, 0.0, 0.0, 0.0, 3.0, 1.0, 0.0, 1.0, 3.0, 0.0, 1.0, 0.0, 1.0, 2.0, 1.0, 2.0, 2.0, 1.0, 2.0, 1.0, 1.0, 11.0, 4.0, 1.0, 1.0, 1.0, 2.0, 1.0, 2.0, 0.0, 1.0, 1.0, 0.0, 1.0, 0.0, 0.0, 1.0, 1.0, 0.0, 0.0, 0.0, 3.0, 1.0, 0.0, 0.0, 0.0, 0.0, 0.0, 0.0, 0.0, 3.0], "bins": [-0.03556748479604721, -0.03452559560537338, -0.033483706414699554, -0.032441817224025726, -0.0313999280333519, -0.03035804070532322, -0.02931615337729454, -0.028274264186620712, -0.027232374995946884, -0.026190485805273056, -0.025148596614599228, -0.02410670928657055, -0.02306482009589672, -0.022022930905222893, -0.020981043577194214, -0.019939154386520386, -0.018897265195846558, -0.01785537600517273, -0.0168134868144989, -0.015771599486470222, -0.014729710295796394, -0.013687821105122566, -0.012645932845771313, -0.01160404458642006, -0.010562155395746231, -0.009520266205072403, -0.00847837794572115, -0.007436489220708609, -0.006394600495696068, -0.005352711770683527, -0.004310823045670986, -0.0032689343206584454, -0.002227041870355606, -0.0011851531453430653, -0.00014326442033052444, 0.0008986243046820164, 0.0019405130296945572, 0.002982401754707098, 0.004024290479719639, 0.00506617920473218, 0.0061080679297447205, 0.007149956654757261, 0.008191845379769802, 0.009233733639121056, 0.010275622829794884, 0.011317512020468712, 0.012359400279819965, 0.013401288539171219, 0.014443177729845047, 0.015485066920518875, 0.016526956111192703, 0.017568843439221382, 0.01861073262989521, 0.01965262182056904, 0.020694509148597717, 0.021736398339271545, 0.022778287529945374, 0.0238201767206192, 0.02486206591129303, 0.02590395323932171, 0.026945842429995537, 0.027987731620669365, 0.029029618948698044, 0.030071508139371872, 0.0311133973300457]}, "gradients/linear2.weight": {"_type": "histogram", "values": [2.0, 0.0, 0.0, 0.0, 1.0, 3.0, 5.0, 2.0, 3.0, 8.0, 6.0, 6.0, 11.0, 15.0, 16.0, 17.0, 17.0, 26.0, 18.0, 26.0, 30.0, 41.0, 32.0, 42.0, 48.0, 55.0, 62.0, 80.0, 90.0, 123.0, 139.0, 197.0, 253.0, 1332.0, 409.0, 205.0, 119.0, 100.0, 101.0, 71.0, 47.0, 37.0, 33.0, 27.0, 30.0, 24.0, 29.0, 13.0, 27.0, 21.0, 15.0, 9.0, 15.0, 9.0, 7.0, 13.0, 2.0, 11.0, 7.0, 2.0, 0.0, 1.0, 2.0, 4.0], "bins": [-0.029375992715358734, -0.028507662937045097, -0.02763933502137661, -0.026771005243062973, -0.025902677327394485, -0.02503434754908085, -0.02416601963341236, -0.023297689855098724, -0.022429361939430237, -0.0215610321611166, -0.020692704245448112, -0.019824374467134476, -0.018956046551465988, -0.01808771677315235, -0.017219388857483864, -0.016351059079170227, -0.015482730232179165, -0.014614401385188103, -0.01374607253819704, -0.012877743691205978, -0.012009414844214916, -0.011141085997223854, -0.010272756218910217, -0.00940442830324173, -0.008536098524928093, -0.007667769677937031, -0.006799440830945969, -0.0059311119839549065, -0.005062783136963844, -0.004194453824311495, -0.0033261249773204327, -0.0024577961303293705, -0.0015894677489995956, -0.0007211388438008726, 0.0001471900613978505, 0.0010155190248042345, 0.0018838478717952967, 0.0027521769516170025, 0.0036205057986080647, 0.004488834645599127, 0.005357163492590189, 0.006225492339581251, 0.007093821186572313, 0.007962150499224663, 0.008830479346215725, 0.009698808193206787, 0.01056713704019785, 0.011435465887188911, 0.012303794734179974, 0.013172123581171036, 0.014040452428162098, 0.01490878127515316, 0.015777111053466797, 0.016645438969135284, 0.01751376874744892, 0.01838209666311741, 0.019250426441431046, 0.020118756219744682, 0.02098708413541317, 0.021855413913726807, 0.022723741829395294, 0.02359207160770893, 0.02446039952337742, 0.025328729301691055, 0.026197057217359543]}, "gradients/linear1.bias": {"_type": "histogram", "values": [1.0, 0.0, 0.0, 1.0, 0.0, 1.0, 2.0, 2.0, 0.0, 1.0, 0.0, 0.0, 2.0, 1.0, 0.0, 0.0, 0.0, 2.0, 2.0, 3.0, 0.0, 3.0, 2.0, 1.0, 1.0, 0.0, 0.0, 1.0, 3.0, 0.0, 7.0, 1.0, 3.0, 1.0, 0.0, 2.0, 0.0, 1.0, 2.0, 0.0, 2.0, 1.0, 0.0, 1.0, 1.0, 4.0, 2.0, 1.0, 0.0, 0.0, 0.0, 0.0, 1.0, 0.0, 0.0, 0.0, 1.0, 0.0, 2.0, 1.0, 0.0, 0.0, 0.0, 1.0], "bins": [-0.024080421775579453, -0.023300664499402046, -0.02252090722322464, -0.021741151809692383, -0.020961394533514977, -0.02018163725733757, -0.019401879981160164, -0.018622122704982758, -0.0178423672914505, -0.017062610015273094, -0.016282852739095688, -0.015503096394240856, -0.014723340049386024, -0.013943582773208618, -0.013163825497031212, -0.012384068220853806, -0.0116043109446764, -0.010824553668498993, -0.010044797323644161, -0.009265040047466755, -0.008485283702611923, -0.007705526426434517, -0.006925769150257111, -0.006146012339740992, -0.005366255529224873, -0.004586498718708754, -0.003806741675361991, -0.0030269846320152283, -0.0022472278214991093, -0.0014674710109829903, -0.000687713734805584, 9.204307571053505e-05, 0.0008717980235815048, 0.0016515549505129457, 0.0024313118774443865, 0.003211068920791149, 0.003990825731307268, 0.004770582541823387, 0.0055503398180007935, 0.0063300966285169125, 0.0071098534390330315, 0.007889610715210438, 0.00866936706006527, 0.009449124336242676, 0.010228881612420082, 0.011008637957274914, 0.01178839523345232, 0.012568151578307152, 0.013347908854484558, 0.014127666130661964, 0.014907422475516796, 0.015687178820371628, 0.016466936096549034, 0.01724669337272644, 0.018026450648903847, 0.018806207925081253, 0.01958596333861351, 0.020365720614790916, 0.021145477890968323, 0.02192523330450058, 0.022704990580677986, 0.023484747856855392, 0.0242645051330328, 0.025044262409210205, 0.02582401968538761]}, "gradients/linear1.weight": {"_type": "histogram", "values": [1.0, 1.0, 0.0, 2.0, 1.0, 3.0, 5.0, 4.0, 5.0, 7.0, 9.0, 13.0, 16.0, 16.0, 14.0, 14.0, 18.0, 39.0, 29.0, 40.0, 42.0, 60.0, 72.0, 73.0, 93.0, 137.0, 134.0, 151.0, 171.0, 184.0, 217.0, 357.0, 1007.0, 354.0, 217.0, 195.0, 188.0, 176.0, 146.0, 115.0, 95.0, 87.0, 67.0, 63.0, 52.0, 47.0, 36.0, 19.0, 27.0, 18.0, 17.0, 15.0, 8.0, 10.0, 7.0, 9.0, 10.0, 3.0, 2.0, 4.0, 3.0, 1.0, 1.0, 1.0], "bins": [-0.023124750703573227, -0.022413717582821846, -0.021702684462070465, -0.020991653203964233, -0.020280620083212852, -0.01956958696246147, -0.01885855570435524, -0.01814752258360386, -0.017436489462852478, -0.016725456342101097, -0.016014423221349716, -0.015303391963243484, -0.014592358842492104, -0.013881325721740723, -0.013170293532311916, -0.01245926134288311, -0.011748228222131729, -0.011037195101380348, -0.010326162911951542, -0.009615130722522736, -0.008904097601771355, -0.008193064481019974, -0.0074820322915911674, -0.006770999636501074, -0.00605996698141098, -0.005348934326320887, -0.004637901671230793, -0.003926869016140699, -0.0032158363610506058, -0.002504803705960512, -0.0017937710508704185, -0.001082738395780325, -0.00037170760333538055, 0.00033932505175471306, 0.0010503577068448067, 0.0017613903619349003, 0.002472423017024994, 0.0031834556721150875, 0.003894488327205181, 0.004605520982295275, 0.005316553637385368, 0.006027586292475462, 0.006738618947565556, 0.007449651602655649, 0.008160684257745743, 0.008871717378497124, 0.00958274956792593, 0.010293781757354736, 0.011004814878106117, 0.011715847998857498, 0.012426880188286304, 0.01313791237771511, 0.013848945498466492, 0.014559978619217873, 0.015271010808646679, 0.015982042998075485, 0.016693076118826866, 0.017404109239578247, 0.01811514049768448, 0.01882617361843586, 0.01953720673918724, 0.02024823985993862, 0.020959272980690002, 0.021670304238796234, 0.022381337359547615]}, "gradients/encoder_linear.bias": {"_type": "histogram", "values": [1.0, 0.0, 0.0, 0.0, 1.0, 2.0, 1.0, 0.0, 0.0, 2.0, 0.0, 0.0, 1.0, 2.0, 1.0, 1.0, 0.0, 0.0, 0.0, 1.0, 1.0, 4.0, 1.0, 1.0, 6.0, 4.0, 0.0, 0.0, 0.0, 0.0, 3.0, 1.0, 1.0, 0.0, 1.0, 1.0, 2.0, 1.0, 1.0, 2.0, 3.0, 0.0, 1.0, 2.0, 2.0, 1.0, 1.0, 1.0, 2.0, 1.0, 0.0, 1.0, 2.0, 0.0, 1.0, 0.0, 1.0, 0.0, 0.0, 0.0, 1.0, 0.0, 0.0, 1.0], "bins": [-0.018731456249952316, -0.018170585855841637, -0.017609713599085808, -0.017048843204975128, -0.0164879709482193, -0.01592710055410862, -0.015366229228675365, -0.014805357903242111, -0.014244486577808857, -0.013683615252375603, -0.013122743926942348, -0.012561872601509094, -0.012001002207398415, -0.011440129950642586, -0.010879259556531906, -0.010318388231098652, -0.009757516905665398, -0.009196645580232143, -0.00863577425479889, -0.008074902929365635, -0.007514032069593668, -0.006953160744160414, -0.006392289884388447, -0.0058314185589551926, -0.005270547233521938, -0.004709675908088684, -0.00414880458265543, -0.003587933722883463, -0.0030270623974502087, -0.0024661910720169544, -0.0019053199794143438, -0.0013444488868117332, -0.000783577561378479, -0.0002227063523605466, 0.0003381648566573858, 0.0008990360656753182, 0.0014599072746932507, 0.002020778600126505, 0.0025816496927291155, 0.003142520785331726, 0.0037033921107649803, 0.0042642634361982346, 0.004825134761631489, 0.005386005621403456, 0.00594687694683671, 0.006507748272269964, 0.007068619132041931, 0.007629490457475185, 0.00819036178290844, 0.008751233108341694, 0.009312104433774948, 0.009872975759208202, 0.010433847084641457, 0.010994717478752136, 0.01155558880418539, 0.012116460129618645, 0.012677331455051899, 0.013238202780485153, 0.013799074105918407, 0.014359945431351662, 0.014920815825462341, 0.01548168808221817, 0.01604255847632885, 0.01660342887043953, 0.01716430112719536]}, "gradients/encoder_linear.weight": {"_type": "histogram", "values": [2.0, 1.0, 4.0, 6.0, 7.0, 10.0, 17.0, 31.0, 48.0, 62.0, 71.0, 115.0, 89.0, 86.0, 105.0, 122.0, 174.0, 177.0, 256.0, 184.0, 196.0, 186.0, 354.0, 369.0, 322.0, 461.0, 951.0, 1249.0, 1120.0, 1236.0, 1355.0, 2523.0, 1578.0, 927.0, 1997.0, 1775.0, 1500.0, 1012.0, 853.0, 614.0, 494.0, 391.0, 363.0, 323.0, 263.0, 183.0, 145.0, 170.0, 125.0, 139.0, 56.0, 47.0, 38.0, 48.0, 33.0, 40.0, 22.0, 28.0, 10.0, 11.0, 8.0, 4.0, 1.0, 1.0], "bins": [-0.010028406977653503, -0.00972757674753666, -0.00942674744874239, -0.00912591814994812, -0.008825087919831276, -0.008524257689714432, -0.008223428390920162, -0.007922599092125893, -0.0076217688620090485, -0.007320939097553492, -0.007020109333097935, -0.006719279568642378, -0.006418449804186821, -0.006117620039731264, -0.005816790275275707, -0.00551596051082015, -0.0052151307463645935, -0.004914300981909037, -0.00461347121745348, -0.004312641452997923, -0.004011811688542366, -0.003710981924086809, -0.0034101521596312523, -0.0031093223951756954, -0.0028084926307201385, -0.0025076628662645817, -0.002206833101809025, -0.001906003337353468, -0.001605173572897911, -0.0013043438084423542, -0.0010035140439867973, -0.0007026842795312405, -0.0004018545150756836, -0.00010102475062012672, 0.00019980501383543015, 0.000500634778290987, 0.0008014645427465439, 0.0011022943072021008, 0.0014031240716576576, 0.0017039538361132145, 0.0020047836005687714, 0.0023056133650243282, 0.002606443129479885, 0.002907272893935442, 0.003208102658390999, 0.0035089324228465557, 0.0038097621873021126, 0.0041105919517576694, 0.004411421716213226, 0.004712251480668783, 0.00501308124512434, 0.005313911009579897, 0.005614740774035454, 0.005915570538491011, 0.0062164003029465675, 0.006517230067402124, 0.006818059831857681, 0.007118889596313238, 0.007419719360768795, 0.007720549125224352, 0.008021378889679909, 0.008322209119796753, 0.008623038418591022, 0.008923867717385292, 0.009224697947502136]}, "gradients/conv3.bias": {"_type": "histogram", "values": [1.0, 0.0, 0.0, 0.0, 0.0, 0.0, 1.0, 0.0, 0.0, 0.0, 0.0, 0.0, 0.0, 0.0, 0.0, 0.0, 0.0, 0.0, 0.0, 0.0, 0.0, 0.0, 0.0, 0.0, 0.0, 0.0, 0.0, 0.0, 1.0, 0.0, 0.0, 0.0, 0.0, 0.0, 0.0, 0.0, 0.0, 0.0, 1.0, 0.0, 0.0, 0.0, 1.0, 0.0, 0.0, 0.0, 0.0, 0.0, 0.0, 0.0, 1.0, 0.0, 0.0, 0.0, 0.0, 0.0, 1.0, 0.0, 0.0, 0.0, 0.0, 0.0, 0.0, 1.0], "bins": [-0.05075700581073761, -0.0496460422873497, -0.04853507876396179, -0.04742411524057388, -0.046313151717185974, -0.045202191919088364, -0.044091228395700455, -0.042980264872312546, -0.04186930134892464, -0.04075833782553673, -0.03964737430214882, -0.03853641077876091, -0.0374254509806633, -0.03631448745727539, -0.03520352393388748, -0.03409256041049957, -0.032981596887111664, -0.031870633363723755, -0.030759669840335846, -0.029648708179593086, -0.028537744656205177, -0.02742678113281727, -0.02631581947207451, -0.0252048559486866, -0.02409389242529869, -0.022982928901910782, -0.021871965378522873, -0.020761003717780113, -0.019650040194392204, -0.018539076671004295, -0.017428115010261536, -0.016317151486873627, -0.015206186100840569, -0.01409522257745266, -0.012984259985387325, -0.011873297393321991, -0.010762333869934082, -0.009651370346546173, -0.008540407754480839, -0.007429444696754217, -0.0063184816390275955, -0.005207518581300974, -0.004096555523574352, -0.0029855924658477306, -0.001874629408121109, -0.0007636663503944874, 0.00034729670733213425, 0.0014582597650587559, 0.0025692228227853775, 0.003680185880511999, 0.004791148938238621, 0.005902111995965242, 0.007013075053691864, 0.008124038577079773, 0.009235001169145107, 0.010345963761210442, 0.01145692728459835, 0.01256789080798626, 0.013678853400051594, 0.014789815992116928, 0.015900779515504837, 0.017011743038892746, 0.018122706562280655, 0.019233668223023415, 0.020344631746411324]}, "gradients/conv3.weight": {"_type": "histogram", "values": [1.0, 0.0, 0.0, 2.0, 1.0, 0.0, 1.0, 1.0, 2.0, 0.0, 2.0, 0.0, 1.0, 1.0, 4.0, 3.0, 4.0, 1.0, 8.0, 5.0, 7.0, 4.0, 3.0, 3.0, 3.0, 4.0, 3.0, 3.0, 3.0, 0.0, 1.0, 1.0, 2.0, 1.0, 1.0, 1.0, 3.0, 6.0, 4.0, 7.0, 10.0, 11.0, 10.0, 14.0, 8.0, 16.0, 12.0, 2.0, 0.0, 0.0, 2.0, 8.0, 8.0, 8.0, 13.0, 6.0, 5.0, 19.0, 12.0, 10.0, 7.0, 6.0, 2.0, 2.0], "bins": [-0.027098100632429123, -0.02654867433011532, -0.025999246165156364, -0.02544981986284256, -0.024900393560528755, -0.02435096725821495, -0.023801539093255997, -0.023252112790942192, -0.022702686488628387, -0.022153260186314583, -0.02160383202135563, -0.021054405719041824, -0.02050497941672802, -0.019955553114414215, -0.01940612494945526, -0.018856698647141457, -0.018307272344827652, -0.017757846042513847, -0.017208417877554893, -0.01665899157524109, -0.016109565272927284, -0.015560138039290905, -0.015010710805654526, -0.014461284503340721, -0.013911856338381767, -0.013362429104745388, -0.012813002802431583, -0.012263575568795204, -0.0117141492664814, -0.01116472203284502, -0.010615294799208641, -0.010065868496894836, -0.009516443125903606, -0.008967015892267227, -0.008417589589953423, -0.007868162356317043, -0.007318736054003239, -0.0067693088203668594, -0.0062198820523917675, -0.005670455284416676, -0.005121028516441584, -0.004571601748466492, -0.0040221749804914, -0.003472747979685664, -0.0029233212117105722, -0.0023738944437354803, -0.0018244674429297447, -0.0012750406749546528, -0.0007256139069795609, -0.000176187080796808, 0.00037323974538594484, 0.0009226666297763586, 0.0014720933977514505, 0.0020215201657265425, 0.002570947166532278, 0.00312037393450737, 0.003669800702482462, 0.004219227470457554, 0.004768654238432646, 0.005318081006407738, 0.005867508240044117, 0.006416934542357922, 0.006966361775994301, 0.007515788543969393, 0.008065215311944485]}, "gradients/conv2.bias": {"_type": "histogram", "values": [1.0, 0.0, 0.0, 0.0, 0.0, 0.0, 0.0, 0.0, 0.0, 0.0, 0.0, 1.0, 0.0, 0.0, 0.0, 0.0, 0.0, 0.0, 0.0, 0.0, 0.0, 1.0, 0.0, 0.0, 0.0, 0.0, 0.0, 0.0, 0.0, 0.0, 0.0, 0.0, 0.0, 0.0, 0.0, 0.0, 0.0, 0.0, 0.0, 0.0, 0.0, 0.0, 0.0, 0.0, 0.0, 0.0, 0.0, 0.0, 0.0, 0.0, 0.0, 0.0, 0.0, 0.0, 0.0, 0.0, 0.0, 0.0, 0.0, 0.0, 0.0, 0.0, 0.0, 1.0], "bins": [-0.010503980331122875, -0.010010744445025921, -0.009517507627606392, -0.009024271741509438, -0.008531035855412483, -0.008037799969315529, -0.007544563617557287, -0.0070513272657990456, -0.006558091379702091, -0.006064855493605137, -0.005571619141846895, -0.0050783827900886536, -0.004585146903991699, -0.004091911017894745, -0.0035986746661365032, -0.0031054385472089052, -0.0026122024282813072, -0.0021189663093537092, -0.0016257301904261112, -0.0011324940714985132, -0.0006392579525709152, -0.00014602183364331722, 0.0003472142852842808, 0.0008404504042118788, 0.0013336865231394768, 0.0018269226420670748, 0.0023201587609946728, 0.0028133948799222708, 0.0033066309988498688, 0.0037998671177774668, 0.004293103236705065, 0.004786339588463306, 0.005279574543237686, 0.0057728104293346405, 0.006266046781092882, 0.006759283132851124, 0.007252519018948078, 0.0077457549050450325, 0.008238991722464561, 0.008732227608561516, 0.00922546349465847, 0.009718699380755424, 0.010211935266852379, 0.010705172084271908, 0.011198407970368862, 0.011691643856465816, 0.012184880673885345, 0.0126781165599823, 0.013171352446079254, 0.013664588332176208, 0.014157824218273163, 0.014651061035692692, 0.015144296921789646, 0.015637533739209175, 0.01613076962530613, 0.016624005511403084, 0.017117241397500038, 0.017610477283596992, 0.018103713169693947, 0.0185969490557909, 0.019090186804533005, 0.01958342269062996, 0.020076658576726913, 0.020569894462823868, 0.021063130348920822]}, "gradients/conv2.weight": {"_type": "histogram", "values": [1.0, 0.0, 0.0, 1.0, 1.0, 1.0, 4.0, 4.0, 4.0, 4.0, 7.0, 9.0, 2.0, 2.0, 1.0, 3.0, 2.0, 3.0, 5.0, 10.0, 5.0, 8.0, 7.0, 6.0, 2.0, 7.0, 10.0, 5.0, 4.0, 3.0, 2.0, 3.0, 5.0, 2.0, 7.0, 3.0, 4.0, 2.0, 0.0, 1.0, 0.0, 0.0, 0.0, 0.0, 0.0, 0.0, 0.0, 0.0, 0.0, 5.0, 2.0, 5.0, 8.0, 4.0, 6.0, 3.0, 6.0, 2.0, 2.0, 2.0, 1.0, 2.0, 1.0, 1.0], "bins": [-0.0067754266783595085, -0.006530348677188158, -0.0062852706760168076, -0.006040192674845457, -0.005795114673674107, -0.005550037138164043, -0.005304959136992693, -0.0050598811358213425, -0.004814803134649992, -0.0045697251334786415, -0.004324647132307291, -0.0040795691311359406, -0.0038344913627952337, -0.0035894133616238832, -0.0033443355932831764, -0.003099257592111826, -0.0028541795909404755, -0.002609101589769125, -0.0023640235885977745, -0.0021189458202570677, -0.0018738678190857172, -0.0016287898179143667, -0.001383711933158338, -0.0011386340484023094, -0.0008935560472309589, -0.0006484781042672694, -0.0004034001613035798, -0.00015832221833989024, 8.675572462379932e-05, 0.0003318337257951498, 0.0005769116105511785, 0.0008219894953072071, 0.001067066565155983, 0.0013121445663273335, 0.001557222451083362, 0.0018023003358393908, 0.0020473783370107412, 0.0022924563381820917, 0.0025375341065227985, 0.002782612107694149, 0.0030276901088654995, 0.00327276811003685, 0.0035178461112082005, 0.0037629238795489073, 0.004008001647889614, 0.004253080114722252, 0.004498157650232315, 0.0047432356514036655, 0.004988313652575016, 0.0052333916537463665, 0.005478469654917717, 0.0057235476560890675, 0.005968625657260418, 0.006213703192770481, 0.006458781193941832, 0.006703859195113182, 0.0069489371962845325, 0.007194015197455883, 0.0074390931986272335, 0.007684171199798584, 0.007929248735308647, 0.008174327202141285, 0.008419404737651348, 0.008664483204483986, 0.008909560739994049]}, "gradients/conv1.bias": {"_type": "histogram", "values": [1.0, 0.0, 0.0, 0.0, 0.0, 0.0, 0.0, 0.0, 0.0, 0.0, 0.0, 0.0, 0.0, 0.0, 0.0, 0.0, 0.0, 0.0, 0.0, 0.0, 0.0, 0.0, 0.0, 0.0, 0.0, 0.0, 0.0, 0.0, 0.0, 0.0, 0.0, 0.0, 0.0, 0.0, 0.0, 0.0, 0.0, 0.0, 0.0, 0.0, 0.0, 0.0, 0.0, 0.0, 0.0, 0.0, 0.0, 0.0, 0.0, 0.0, 0.0, 0.0, 0.0, 0.0, 0.0, 0.0, 0.0, 0.0, 0.0, 0.0, 0.0, 0.0, 0.0, 1.0], "bins": [-0.00030122962198220193, -0.000234461112995632, -0.00016769260400906205, -0.00010092409502249211, -3.415558603592217e-05, 3.261290839873254e-05, 9.938143193721771e-05, 0.00016614995547570288, 0.0002329184499103576, 0.00029968697344884276, 0.0003664554678834975, 0.0004332239623181522, 0.0004999925149604678, 0.0005667610093951225, 0.0006335295038297772, 0.000700297998264432, 0.0007670664926990867, 0.0008338349871337414, 0.0009006034815683961, 0.0009673720342107117, 0.0010341405868530273, 0.0011009089648723602, 0.0011676775757223368, 0.0012344460701569915, 0.0013012145645916462, 0.001367983059026301, 0.0014347515534609556, 0.0015015200478956103, 0.001568288542330265, 0.0016350571531802416, 0.0017018256476148963, 0.001768594142049551, 0.001835362520068884, 0.0019021310145035386, 0.0019688995089381933, 0.00203566811978817, 0.0021024364978075027, 0.0021692051086574793, 0.002235973486676812, 0.0023027420975267887, 0.0023695104755461216, 0.002436279086396098, 0.002503047464415431, 0.0025698160752654076, 0.0026365844532847404, 0.002703353064134717, 0.00277012144215405, 0.0028368900530040264, 0.002903658663854003, 0.0029704272747039795, 0.0030371956527233124, 0.003103964263573289, 0.003170732641592622, 0.0032375012524425983, 0.0033042696304619312, 0.0033710382413119078, 0.0034378068521618843, 0.003504575463011861, 0.0035713438410311937, 0.0036381124518811703, 0.003704880829900503, 0.0037716494407504797, 0.0038384178187698126, 0.003905186429619789, 0.003971954807639122]}, "gradients/conv1.weight": {"_type": "histogram", "values": [2.0, 0.0, 0.0, 1.0, 1.0, 1.0, 3.0, 1.0, 1.0, 1.0, 1.0, 1.0, 2.0, 1.0, 0.0, 1.0, 2.0, 0.0, 3.0, 0.0, 4.0, 1.0, 1.0, 2.0, 2.0, 2.0, 1.0, 2.0, 3.0, 3.0, 2.0, 2.0, 2.0, 0.0, 0.0, 1.0, 1.0, 1.0, 6.0, 3.0, 0.0, 8.0, 6.0, 6.0, 1.0, 6.0, 1.0, 2.0, 0.0, 0.0, 0.0, 0.0, 0.0, 0.0, 1.0, 0.0, 0.0, 0.0, 0.0, 2.0, 1.0, 1.0, 0.0, 2.0], "bins": [-0.0031552365981042385, -0.003070214996114373, -0.002985193394124508, -0.0029001717921346426, -0.0028151501901447773, -0.002730128588154912, -0.0026451069861650467, -0.0025600851513445377, -0.002475063782185316, -0.0023900421801954508, -0.0023050205782055855, -0.00221999897621572, -0.002134977374225855, -0.0020499557722359896, -0.0019649341702461243, -0.0018799124518409371, -0.00179489073343575, -0.0017098691314458847, -0.0016248475294560194, -0.001539825927466154, -0.0014548043254762888, -0.0013697827234864235, -0.0012847610050812364, -0.001199739403091371, -0.0011147178011015058, -0.0010296961991116405, -0.0009446745971217752, -0.0008596529369242489, -0.0007746313349343836, -0.0006896097329445183, -0.0006045880727469921, -0.0005195664707571268, -0.00043454463593661785, -0.00034952303394675255, -0.0002645014028530568, -0.00017947977175936103, -9.445816976949573e-05, -9.436567779630423e-06, 7.55850924178958e-05, 0.0001606066944077611, 0.0002456282963976264, 0.0003306498983874917, 0.00041567152948118746, 0.0005006931605748832, 0.0005857147625647485, 0.0006707363645546138, 0.00075575802475214, 0.0008407796267420053, 0.0009258012287318707, 0.001010822830721736, 0.0010958444327116013, 0.0011808660347014666, 0.0012658876366913319, 0.0013509092386811972, 0.0014359309570863843, 0.0015209525590762496, 0.001605974161066115, 0.0016909957630559802, 0.0017760173650458455, 0.0018610390834510326, 0.001946060685440898, 0.0020310822874307632, 0.0021161038894206285, 0.002201125491410494, 0.002286147093400359]}}